-0.215530276298522949
-0.926026105880737305
1.886628031730651855
0.356783568859100342
-0.573594212532043457
2.750949382781982422
1.019334793090820312
-0.189571425318717957
2.338236808776855469
0.756480395793914795
-0.553748607635498047
1.009238243103027344
2.934198617935180664
1.689924478530883789
-0.749591529369354248
1.039863705635070801
1.823526144027709961
3.561918735504150391
1.341479539871215820
0.761916160583496094
3.839819431304931641
2.190527439117431641
0.589493095874786377
0.944979131221771240
0.136920228600502014
0.100441820919513702
3.092998266220092773
-0.845617473125457764
-0.128160893917083740
0.632263541221618652
0.206982597708702087
1.306602478027343750
-0.275008618831634521
1.601690530776977539
2.779414415359497070
-0.368950515985488892
1.766149282455444336
1.225255489349365234
0.792163252830505371
3.508026838302612305
-0.353877574205398560
6.046583175659179688
0.867433488368988037
2.749371528625488281
-0.139074236154556274
3.797382593154907227
-1.100637912750244141
2.106212854385375977
1.514369249343872070
2.278350830078125000
3.457589626312255859
1.315631389617919922
1.187065482139587402
2.353469133377075195
0.487417072057723999
0.808164775371551514
2.643392801284790039
-0.254401296377182007
-0.098344638943672180
1.550672292709350586
2.438040733337402344
3.432701349258422852
1.493358373641967773
1.751978993415832520
-0.060312937945127487
0.874337732791900635
1.171428561210632324
-0.360554963350296021
0.802817642688751221
1.254066109657287598
-1.147385716438293457
2.075769901275634766
0.780001163482666016
0.650047481060028076
0.274095892906188965
2.146918535232543945
2.742087364196777344
0.782440662384033203
-0.097755581140518188
1.707380771636962891
0.703510284423828125
1.463454008102416992
-0.428214460611343384
1.486497282981872559
0.790250718593597412
3.052645444869995117
-2.085988283157348633
1.895168542861938477
0.184807598590850830
-2.127943038940429688
-0.261169582605361938
1.220863699913024902
-0.294706434011459351
-0.006962402258068323
-0.375529170036315918
0.130843117833137512
0.051629859954118729
-0.002740460215136409
0.134048059582710266
0.053301092237234116
-0.639379441738128662
0.414221853017807007
2.961932420730590820
1.595733046531677246
0.991960227489471436
2.314093351364135742
0.103039234876632690
1.184053421020507812
-0.443559616804122925
-1.093698978424072266
0.231808245182037354
0.097965449094772339
-1.871280193328857422
0.249097228050231934
1.744349598884582520
4.003330230712890625
0.848718285560607910
1.555646777153015137
1.270326375961303711
-0.347017109394073486
0.492161780595779419
-0.757497251033782959
1.486850857734680176
-0.430381119251251221
4.271242141723632812
2.605712890625000000
3.178691387176513672
-0.525864481925964355
2.338050365447998047
2.126235961914062500
2.100234508514404297
3.120759248733520508
-1.241104125976562500
2.676851272583007812
3.205578327178955078
2.261358261108398438
-0.301689058542251587
2.711672782897949219
0.224870190024375916
0.688010573387145996
2.876955270767211914
2.367538213729858398
2.703410148620605469
-0.123024575412273407
0.143388316035270691
2.102578163146972656
-0.440082430839538574
3.329018115997314453
2.780878067016601562
1.934388279914855957
5.830528259277343750
1.281686305999755859
-0.746395051479339600
2.050803184509277344
-1.307610988616943359
3.014233112335205078
2.947859287261962891
3.338156461715698242
-0.542957127094268799
2.060618400573730469
0.642085790634155273
3.361665248870849609
-1.090705990791320801
-0.795884966850280762
0.267165362834930420
-0.372407585382461548
3.046970605850219727
1.606539726257324219
1.455416440963745117
-0.759419381618499756
0.363280624151229858
1.151186108589172363
0.592171370983123779
-0.941593945026397705
1.013656139373779297
2.214109182357788086
-0.019861709326505661
0.311780810356140137
3.507717847824096680
2.399271249771118164
-0.341891735792160034
2.700035333633422852
4.072225093841552734
1.686715126037597656
-1.004109859466552734
0.011066376231610775
0.353603571653366089
1.340927243232727051
1.680037498474121094
2.184547662734985352
2.738687515258789062
-1.177968621253967285
-0.389604866504669189
1.111146807670593262
0.665584981441497803
1.822600603103637695
-0.514010190963745117
0.152259871363639832
2.294309616088867188
1.815858244895935059
4.646142482757568359
1.846176266670227051
1.564973711967468262
0.885598838329315186
1.549136877059936523
2.498992443084716797
0.887772023677825928
0.025421684607863426
1.885801553726196289
-0.392132282257080078
0.087084271013736725
-0.119808599352836609
-0.228355854749679565
5.881332397460937500
-0.715376913547515869
0.471097707748413086
3.433576107025146484
1.166521430015563965
-0.185336992144584656
0.279505759477615356
3.268305063247680664
1.110662102699279785
0.565606892108917236
2.830042123794555664
2.333799600601196289
0.474386632442474365
-0.570408701896667480
0.672292649745941162
2.407869100570678711
-0.464497417211532593
1.415716886520385742
2.604000568389892578
0.965106904506683350
-0.671630799770355225
0.436954349279403687
-0.782088696956634521
0.508275747299194336
0.428568154573440552
1.036508798599243164
1.017604947090148926
-0.940486252307891846
0.737872004508972168
2.297441244125366211
0.697437047958374023
-0.682972431182861328
-0.785491287708282471
-0.457309842109680176
2.473434209823608398
2.488073348999023438
2.155726671218872070
-0.758849620819091797
3.423251390457153320
2.683368682861328125
1.263785958290100098
-0.309851258993148804
1.397939443588256836
