1.637540459632873535,-0.615413725376129150,-0.198691189289093018,-0.831523597240447998,-0.984734296798706055,-2.058691740036010742,2.061558485031127930,3.336355686187744141,0.976746916770935059,-0.694784820079803467,-1.491237163543701172,-0.152686893939971924,1.053947091102600098,1.427684068679809570,-0.646399974822998047,0.683539211750030518,-0.058815073221921921,0.449269086122512817,-0.829168319702148438,1.496687889099121094,1.152952194213867188,0.405288457870483398,-0.450224459171295166,-1.459035515785217285,-0.850925087928771973,-0.338726192712783813,-1.322960019111633301,-0.255035907030105591,-0.377380967140197754,-1.037617683410644531,-0.737444937229156494,-0.495343387126922607,-0.448055595159530640,-0.266408950090408325,0.943808257579803467,-0.956186234951019287,-0.327853471040725708,0.996045947074890137,-1.173670411109924316,0.764192700386047363,-0.890092015266418457,1.739008307456970215,0.029475172981619835,0.791046023368835449,-0.183523043990135193,1.804144382476806641,2.216735124588012695,-1.238700747489929199,0.600812196731567383,-0.966327965259552002,-1.105484008789062500,-1.043969035148620605,-0.879190564155578613,-0.992479443550109863,-0.976448655128479004,1.318156123161315918,0.364549309015274048,-0.872930467128753662,-0.379963010549545288,-2.676939010620117188,0.029967242851853371,0.893881618976593018,1.646284222602844238,1.445846438407897949,2.223137617111206055,0.968545317649841309,-0.407284080982208252,-1.403807520866394043,0.374262958765029907,-0.720862925052642822,-0.706156969070434570,-0.443883448839187622,-0.406949877738952637,-1.262989878654479980,-0.719004333019256592,-1.801212310791015625,-0.660981833934783936,-0.502840876579284668,-1.141230106353759766,-0.086601704359054565,-0.510539829730987549,-0.883043527603149414,1.418109536170959473,-1.000326156616210938,-0.745210587978363037,0.252180814743041992,-0.683562576770782471,-0.261629402637481689,-0.634881258010864258,-0.618214249610900879,-1.157798647880554199,-9.432630538940429688,-0.481441438198089600,-0.639940977096557617,-0.913530826568603516,-1.077157616615295410,-0.561389625072479248,-0.799753963947296143,-1.222740292549133301,-0.677413642406463623,3.071375370025634766,1.604802370071411133,0.583326697349548340,-0.586904585361480713,1.000071406364440918,2.013094902038574219,0.664736032485961914,-1.791088461875915527,-0.753269314765930176,-0.887573480606079102,-0.537733733654022217,-0.499985039234161377,-1.439523696899414062,-0.887972235679626465,0.076482675969600677,-0.624042570590972900,-0.918176174163818359,0.324377596378326416,0.688617646694183350,0.065874330699443817,-1.334710597991943359,-0.645991384983062744,0.009997019544243813,-0.931944549083709717,0.490408152341842651,0.902107059955596924,-0.044419888406991959,2.639559745788574219,0.379516512155532837,1.148208141326904297,0.536172032356262207,-0.597886800765991211,-0.443045824766159058,0.770865201950073242,-0.901474118232727051,0.256832093000411987,2.734544038772583008,0.931085884571075439,-0.929663062095642090,-1.128997087478637695,-0.778857350349426270,1.195412516593933105,-1.173033118247985840,0.857609868049621582,-1.277827501296997070,0.504115581512451172,2.075567483901977539,0.558398127555847168,-0.926882445812225342,-0.700278818607330322,2.011022090911865234,-0.116091698408126831,-0.913878500461578369,-0.539057075977325439,-0.429749608039855957,-0.354273170232772827,0.932798385620117188,0.357598066329956055,-4.312073707580566406,1.247572898864746094,0.259018152952194214,-0.583087921142578125,-6.090812206268310547,-0.732144951820373535,-0.730580985546112061,2.658058404922485352,1.835254788398742676,-2.456108331680297852,1.751929521560668945,-0.911343157291412354,2.216262817382812500,2.284871578216552734,-0.830943167209625244,-1.251640915870666504,-0.645135819911956787,-0.548698365688323975,-1.380562305450439453,-0.559367120265960693,1.409826993942260742,1.147094011306762695,-1.263225317001342773,-0.572732269763946533,1.890983581542968750,0.633622527122497559,-0.755102753639221191,-0.962815046310424805,-1.189166307449340820,2.645095586776733398,0.734455466270446777,-0.573162376880645752,-0.981591641902923584,-0.391424030065536499,-1.313528299331665039,-1.112512826919555664,-11.690741539001464844,0.296718895435333252,2.797065973281860352,-0.576007664203643799,0.347953379154205322,-1.055405616760253906,0.812938153743743896,1.398865103721618652,-0.423283070325851440,-0.610740005970001221,0.261856853961944580,-0.854847848415374756,-6.986516952514648438,2.202830314636230469,0.786558210849761963,-0.780652642250061035,-1.307783246040344238,-0.928581058979034424,-0.901549637317657471,1.799928665161132812,-2.037199497222900391,1.443075180053710938,0.966468572616577148,-0.135132357478141785,-0.870743513107299805,-1.126587629318237305,0.525597989559173584,0.652040064334869385,-0.926072537899017334,0.871958553791046143,1.220994949340820312,-0.512401103973388672,-0.616089224815368652,0.503747701644897461,-0.454903215169906616,-0.431777358055114746,-0.570626199245452881,-0.385670989751815796,-0.359157443046569824,2.614492893218994141,-1.232809424400329590,0.275235414505004883,-0.425375670194625854,-0.612954378128051758,-9.788116455078125000,1.488860368728637695,-1.087635040283203125,-1.115309596061706543,-0.675149381160736084,5.222676753997802734,-0.006460438016802073,-0.838499009609222412,-0.698134183883666992,0.049393616616725922,0.189494520425796509,-0.240084514021873474,-0.965403795242309570,1.860432982444763184,-0.652146577835083008,0.435365289449691772,-1.815215706825256348,0.073641486465930939
-1.086575865745544434,0.651323795318603516,0.163238257169723511,1.697458863258361816,0.888465702533721924,3.198720693588256836,-1.097602844238281250,-2.526529550552368164,-0.777699768543243408,0.794038712978363037,0.781261086463928223,1.046519756317138672,-0.590523004531860352,-0.608080446720123291,0.904195964336395264,-0.525177121162414551,1.520047426223754883,0.128856092691421509,1.414290904998779297,-1.203129529953002930,-0.724444150924682617,-1.249259948730468750,1.024881243705749512,0.717489719390869141,1.490991950035095215,0.871919035911560059,1.456620216369628906,0.126219451427459717,0.201955676078796387,1.136597514152526855,0.725396573543548584,1.266238570213317871,1.510341882705688477,1.051581501960754395,-0.394211441278457642,0.642703831195831299,0.358052104711532593,-0.378913342952728271,1.228987216949462891,-0.360231906175613403,2.236295700073242188,-0.755548179149627686,2.531583786010742188,0.236123740673065186,0.636825323104858398,-0.806779623031616211,-1.283979177474975586,1.777396440505981445,0.873417854309082031,1.121900796890258789,1.515455365180969238,1.890021443367004395,0.769208490848541260,0.863283991813659668,0.908619225025177002,-0.818777203559875488,-0.492141306400299072,0.364066302776336670,1.065280914306640625,2.726265907287597656,0.463097900152206421,-0.701803803443908691,-1.548357963562011719,0.113340675830841064,-1.470864534378051758,-0.649844825267791748,1.992132902145385742,0.971706151962280273,-0.536881387233734131,0.926178693771362305,0.817287445068359375,1.432529568672180176,0.249119669198989868,1.074134111404418945,1.461159467697143555,1.966013312339782715,1.473748087882995605,0.823101878166198730,1.151038408279418945,0.326690375804901123,0.490301519632339478,1.472030997276306152,-1.016199946403503418,1.119568824768066406,0.694281220436096191,-0.283777087926864624,0.985978782176971436,0.778926253318786621,0.663550376892089844,0.379369169473648071,0.942512154579162598,16.925642013549804688,0.686680436134338379,1.071120738983154297,0.576598167419433594,0.816893458366394043,0.695445835590362549,1.091205120086669922,1.059973597526550293,0.423629701137542725,-1.924598932266235352,-0.712460279464721680,-0.353127419948577881,1.183184385299682617,-0.777564108371734619,-0.553925752639770508,-0.939450860023498535,1.904594898223876953,0.651187419891357422,0.726661443710327148,2.059051990509033203,1.479517936706542969,1.473095774650573730,0.881678044795989990,0.605774223804473877,1.728222608566284180,0.745175778865814209,-0.535068154335021973,-0.440919518470764160,0.319381922483444214,1.071888208389282227,0.782101750373840332,2.073590278625488281,0.840223491191864014,-0.161878019571304321,-0.465229809284210205,0.283959537744522095,-2.360441923141479492,-0.349493026733398438,-0.979907810688018799,-0.821478903293609619,1.420237064361572266,1.285614252090454102,-0.183873414993286133,1.708314180374145508,0.165869459509849548,-1.484915494918823242,-0.535978853702545166,1.647245883941650391,0.906675517559051514,1.868932843208312988,-1.013116240501403809,1.261970043182373047,-0.266642242670059204,1.383387923240661621,-0.891205191612243652,-1.639957070350646973,-0.317542970180511475,1.317936539649963379,0.829555869102478027,-1.145010113716125488,1.638183474540710449,0.882851243019104004,1.046249866485595703,0.664246618747711182,1.426655888557434082,-1.171877861022949219,-0.453567385673522949,4.781423568725585938,-0.812097489833831787,0.732971370220184326,1.765479683876037598,6.725576400756835938,0.516122698783874512,0.816799461841583252,-1.712953805923461914,-0.377007007598876953,3.475765466690063477,-1.180061697959899902,1.122282505035400391,-1.331795692443847656,-1.782163500785827637,0.201374754309654236,1.164538979530334473,0.544871866703033447,1.508489131927490234,0.469630569219589233,0.608382046222686768,-0.901211798191070557,-0.648999273777008057,1.398745775222778320,1.416503906250000000,-0.824165463447570801,-0.450018852949142456,0.368481487035751343,0.915888845920562744,0.586902022361755371,-1.953910589218139648,-0.670262455940246582,1.325257539749145508,1.803100705146789551,0.533235013484954834,0.934881508350372314,0.654520988464355469,16.319841384887695312,-0.580904662609100342,-1.945641517639160156,1.051370382308959961,-0.213005140423774719,1.794318556785583496,-0.627212464809417725,-1.209052205085754395,1.968205451965332031,1.595507264137268066,-0.796759188175201416,1.338148593902587891,10.676071166992187500,-1.228120326995849609,-0.794824004173278809,0.334017902612686157,1.075528144836425781,0.748893082141876221,1.027525305747985840,-0.889621675014495850,1.837607026100158691,-0.705377042293548584,-0.759274959564208984,0.030750202015042305,0.439643770456314087,1.207404017448425293,-0.277357369661331177,-0.773079812526702881,0.884982526302337646,-0.424043118953704834,-0.918589115142822266,0.645985841751098633,0.095907196402549744,-0.961789965629577637,1.447574615478515625,0.151843294501304626,0.944861590862274170,1.383622884750366211,0.208558335900306702,-2.836396694183349609,1.236257314682006836,3.485690832138061523,1.291920781135559082,5.107137203216552734,15.170290946960449219,-0.890406072139739990,0.471520483493804932,0.888343214988708496,1.252655863761901855,-3.757582187652587891,1.036456346511840820,0.894657850265502930,1.374112129211425781,0.600622296333312988,-0.232285782694816589,-0.029422704130411148,1.362316846847534180,-0.426144570112228394,1.880650877952575684,0.589160263538360596,1.601000189781188965,2.247733116149902344
0.676625072956085205,-0.541752994060516357,0.908877670764923096,-0.428025871515274048,-0.471487581729888916,0.438532292842864990,1.897461652755737305,1.694628238677978516,0.971752524375915527,-0.250273257493972778,-0.030375080183148384,-0.022228509187698364,-0.324349910020828247,0.936277747154235840,-1.423295974731445312,0.580130100250244141,-0.980374336242675781,0.898142457008361816,-0.602328002452850342,0.028665341436862946,1.606337189674377441,0.502894163131713867,0.006242062896490097,0.026956610381603241,-0.405352264642715454,-0.645604968070983887,-1.025791049003601074,-0.266467988491058350,-0.664152741432189941,-1.002506494522094727,-0.769540309906005859,-1.181592226028442383,-1.691643595695495605,-0.283865600824356079,0.894066810607910156,0.012192277237772942,-0.086731135845184326,1.038694024085998535,-0.472899436950683594,-0.935110151767730713,-0.864897429943084717,0.669047176837921143,0.125012919306755066,0.722936868667602539,-0.217219084501266479,0.699023187160491943,-0.377680867910385132,-0.907584965229034424,7.265641212463378906,-2.253589153289794922,-0.699198007583618164,-0.668571352958679199,-0.399638593196868896,1.025932550430297852,-0.675750195980072021,0.651409685611724854,0.855215251445770264,-0.553489446640014648,-0.815437495708465576,-3.708959579467773438,-0.725533425807952881,0.829195320606231689,1.090635299682617188,0.885098934173583984,0.809062719345092773,1.124703884124755859,-7.134967803955078125,-0.781947970390319824,0.183778271079063416,-0.800896584987640381,-0.500877201557159424,-1.027035236358642578,-0.877412140369415283,-0.365442872047424316,-0.337150305509567261,0.720208287239074707,-0.370969116687774658,-0.751899182796478271,-0.295564979314804077,0.704741299152374268,-0.075495153665542603,-2.112663030624389648,-0.092746719717979431,-1.988876819610595703,-0.316554337739944458,-0.210652887821197510,-0.200729221105575562,-1.303244233131408691,-0.743183851242065430,-0.417024046182632446,-0.713380575180053711,-3.863292455673217773,-0.094127736985683441,-0.320756673812866211,-0.328861206769943237,-0.511625349521636963,-0.341388106346130371,-0.708602666854858398,-0.447019994258880615,-0.489365428686141968,0.440331578254699707,0.754260182380676270,0.471461236476898193,-0.492360830307006836,0.660335958003997803,-0.069584250450134277,0.132415309548377991,-0.346636891365051270,-0.553894102573394775,-0.364050060510635376,-0.483559072017669678,-0.746815145015716553,0.073741100728511810,-0.094983428716659546,-0.146482110023498535,-0.639653265476226807,-0.708144843578338623,0.796708345413208008,0.093831136822700500,-0.465761125087738037,-0.525842845439910889,-0.104812160134315491,-1.121021151542663574,-0.568711280822753906,0.296519577503204346,0.576463520526885986,-0.408358722925186157,1.735238194465637207,0.473484218120574951,0.145797774195671082,0.748569607734680176,-1.217125415802001953,-0.915314197540283203,1.069760560989379883,-0.392289966344833374,-0.646435260772705078,0.551805257797241211,0.343367010354995728,-0.993918538093566895,-0.384452432394027710,-1.551666975021362305,0.679824590682983398,-0.952550768852233887,2.247804164886474609,-1.518299341201782227,0.688308298587799072,1.097014665603637695,0.520428001880645752,-0.923879265785217285,-3.421649217605590820,0.871253132820129395,-0.530502319335937500,-0.491263389587402344,-0.598878860473632812,-0.557115614414215088,0.016481347382068634,0.702721536159515381,0.143610700964927673,-6.185202598571777344,0.957682192325592041,7.614718437194824219,-1.348791956901550293,-2.278613090515136719,-0.417858958244323730,-0.128071740269660950,0.475663751363754272,-0.120651431381702423,-4.614471912384033203,0.679768681526184082,-0.358122825622558594,-0.014014289714396000,-0.786871373653411865,0.321368038654327393,-0.409676134586334229,-0.317588627338409424,-0.835639715194702148,-0.160729691386222839,-0.495998352766036987,1.447905182838439941,0.581596791744232178,-0.611401259899139404,-1.257428884506225586,1.054860591888427734,-1.041730284690856934,-0.614817857742309570,-0.867348492145538330,-0.447025567293167114,2.050545930862426758,0.207516133785247803,-0.446520000696182251,-1.221767663955688477,-0.367855399847030640,-0.763730227947235107,-0.789907574653625488,-8.706038475036621094,0.428088128566741943,0.614396035671234131,-0.520639419555664062,1.123474001884460449,-0.977102577686309814,0.856278598308563232,1.164346694946289062,-0.177111297845840454,-0.564419031143188477,0.773951828479766846,-2.414519548416137695,-17.128414154052734375,1.142383933067321777,0.578902423381805420,-0.755140662193298340,-0.626397371292114258,-0.663652956485748291,-0.319214165210723877,0.689295411109924316,0.683646023273468018,0.221892118453979492,0.343644827604293823,0.517148733139038086,-0.846806764602661133,-0.610522627830505371,0.534983277320861816,0.676419377326965332,-0.157412439584732056,0.942694902420043945,0.056924663484096527,-0.906691491603851318,-1.056502103805541992,0.473225653171539307,-0.271299302577972412,-0.445732802152633667,-0.337733507156372070,-0.726666271686553955,-0.678078949451446533,1.225485324859619141,-0.534589350223541260,-5.945174694061279297,-0.682001709938049316,-4.740665435791015625,-10.457804679870605469,0.813896358013153076,-0.638904750347137451,-0.224992781877517700,-0.684447467327117920,4.716814517974853516,-0.627400398254394531,-0.642361402511596680,-0.681693434715270996,-0.086056441068649292,1.772623300552368164,0.704805731773376465,-1.292211532592773438,-0.008148106746375561,-1.408685803413391113,1.950029134750366211,-0.387879967689514160,-2.576179504394531250
1.574678778648376465,-0.454292148351669312,-0.098519310355186462,-1.018516778945922852,-1.035595893859863281,-2.477695941925048828,1.934103846549987793,2.924202442169189453,1.070230484008789062,-0.478883355855941772,-0.956156015396118164,-0.398697972297668457,1.125208616256713867,0.999768137931823730,-0.808853924274444580,0.775642335414886475,0.087080590426921844,0.502871274948120117,-0.586593270301818848,1.722262740135192871,1.193879365921020508,1.424657225608825684,-0.377077817916870117,-0.664196610450744629,-0.802351653575897217,-0.553550124168395996,-1.071128845214843750,-0.501164078712463379,-0.304262787103652954,-0.867051124572753906,-0.613500654697418213,-0.444181323051452637,-0.183135405182838440,-0.433592349290847778,0.927053570747375488,-0.776852190494537354,-0.061068862676620483,1.213196635246276855,-0.391667604446411133,0.956621587276458740,-1.635298967361450195,2.006218671798706055,-0.214012384414672852,0.531617462635040283,-0.131410703063011169,1.766353607177734375,1.694232702255249023,-1.223908424377441406,1.242812991142272949,-1.020671963691711426,-0.816055357456207275,-1.434692382812500000,-0.710037529468536377,-0.476260483264923096,-1.126131176948547363,1.370343804359436035,0.813697099685668945,-0.498386085033416748,-0.408100694417953491,-1.882090210914611816,0.136363625526428223,1.018374919891357422,1.972869277000427246,1.155751466751098633,2.150132656097412109,0.900394439697265625,-1.131623864173889160,-1.132008910179138184,0.963186264038085938,-0.767779290676116943,-0.522279202938079834,-1.004620075225830078,-0.202031925320625305,-0.821420669555664062,-0.734755337238311768,-1.655016183853149414,-0.573039829730987549,-0.501833915710449219,-1.145950078964233398,0.182364538311958313,-0.462158381938934326,-0.438451141119003296,1.448673486709594727,-0.804499030113220215,-0.900784194469451904,0.396994590759277344,-0.724365651607513428,-0.454046428203582764,-0.707550644874572754,-0.420982182025909424,-1.193089723587036133,-11.401187896728515625,-0.828914940357208252,-0.832086324691772461,-0.732274115085601807,-0.549662649631500244,-0.495903611183166504,-0.912136137485504150,-0.859432458877563477,-0.520227432250976562,2.852473258972167969,1.458520174026489258,0.710387408733367920,-0.660658836364746094,1.175773978233337402,1.880081295967102051,0.984930515289306641,-1.876177430152893066,-0.810181438922882080,-0.534150123596191406,-1.174651384353637695,-0.622620522975921631,-0.917818605899810791,-0.844308137893676758,-0.077573269605636597,-1.261471867561340332,-0.492765367031097412,0.715071618556976318,0.971788585186004639,0.137781053781509399,-0.991800189018249512,-0.687245190143585205,-0.645170211791992188,-0.511250734329223633,0.657708823680877686,0.743466973304748535,0.117208138108253479,2.685429811477661133,0.731682479381561279,1.092490077018737793,0.996390104293823242,-0.598890066146850586,-0.578479170799255371,0.487617194652557373,-0.972771644592285156,0.371606767177581787,2.373134851455688477,0.777597665786743164,-0.785195589065551758,-0.764677643775939941,-1.146609187126159668,1.041812777519226074,-1.241967678070068359,0.907221078872680664,-1.190483808517456055,0.933188021183013916,2.038415431976318359,0.718377888202667236,-0.265049546957015991,-0.802057147026062012,2.367645263671875000,-0.424423217773437500,-0.787042438983917236,-0.390465140342712402,-0.686408102512359619,-0.602885246276855469,1.062117695808410645,0.752544462680816650,-4.478848457336425781,1.299550294876098633,0.051469329744577408,-0.736007153987884521,-6.784581661224365234,-0.689239621162414551,-0.485184878110885620,2.345811605453491211,1.246252059936523438,-2.843349933624267578,1.434100151062011719,-0.717114031314849854,2.086455345153808594,2.593997716903686523,0.004369515925645828,-1.115296959877014160,-0.387757480144500732,-0.548519790172576904,-1.125936746597290039,-0.398106664419174194,1.515600562095642090,1.001051664352416992,-1.179506301879882812,-0.938721716403961182,1.957592964172363281,0.861199200153350830,-0.499790847301483154,-1.007742524147033691,-0.924466490745544434,2.786268234252929688,0.855848789215087891,-0.638794302940368652,-1.302541732788085938,-0.025763550773262978,-1.194393038749694824,-1.085533499717712402,-12.505332946777343750,0.788645744323730469,2.557734012603759766,-0.787540316581726074,0.469136863946914673,-1.421106219291687012,1.249556303024291992,1.755160927772521973,-0.381549984216690063,-0.916885018348693848,1.093990087509155273,-0.991990327835083008,-8.677761077880859375,2.020277500152587891,0.926506102085113525,-0.167328774929046631,-1.163591980934143066,-0.795241057872772217,-0.711539626121520996,2.232704877853393555,-1.010295271873474121,1.397481918334960938,0.799930751323699951,0.307448655366897583,-0.297386884689331055,-0.630018413066864014,0.585019886493682861,0.715911746025085449,-0.616680324077606201,0.932806909084320068,1.393786430358886719,-0.391745448112487793,-0.517620682716369629,0.978256225585937500,-0.763558864593505859,-0.224064379930496216,-0.656924009323120117,-0.282915413379669189,-0.299103051424026489,3.108599185943603516,-1.022666454315185547,-1.015902042388916016,-0.601283013820648193,-3.271946430206298828,-11.395885467529296875,1.098404049873352051,-0.615769565105438232,-0.712701797485351562,-0.438733547925949097,4.759498119354248047,-0.105811320245265961,-0.778617978096008301,-1.285885334014892578,-0.193069398403167725,0.535130798816680908,0.033680874854326248,-0.924485802650451660,1.641123652458190918,-0.973122715950012207,0.256028562784194946,-1.453056335449218750,-0.856828808784484863
-1.025935888290405273,0.538836061954498291,0.105718255043029785,1.727790355682373047,0.878028810024261475,3.113000154495239258,-0.757518053054809570,-2.582968473434448242,-0.823713064193725586,0.722285509109497070,0.761809289455413818,1.360616207122802734,-0.270676136016845703,-0.466881811618804932,0.952837884426116943,-0.398736923933029175,1.702287554740905762,0.083574578166007996,1.379780769348144531,-1.143483519554138184,-0.765176773071289062,-1.257425665855407715,1.009249567985534668,0.931368470191955566,1.830153942108154297,0.810774564743041992,1.189498901367187500,0.347531199455261230,0.082421302795410156,1.250407814979553223,0.862429499626159668,1.465944766998291016,1.687930107116699219,1.105036973953247070,-0.272442251443862915,0.738105297088623047,0.626719117164611816,-0.285444259643554688,1.193994045257568359,-0.285714924335479736,2.280983209609985352,-0.765180587768554688,2.496905326843261719,0.210061758756637573,0.505939781665802002,-0.835924088954925537,-1.196353554725646973,1.648744225502014160,1.012610912322998047,1.304841518402099609,1.368768692016601562,2.009505271911621094,0.587178885936737061,0.861667037010192871,0.986804008483886719,-0.792743861675262451,-0.517364740371704102,0.488093167543411255,1.097726464271545410,2.792812108993530273,0.592584490776062012,-0.811093091964721680,-1.280341386795043945,0.486173480749130249,-1.491967201232910156,-0.391618460416793823,2.244908809661865234,1.086930751800537109,-0.640213251113891602,0.980664253234863281,0.780637085437774658,1.326017379760742188,0.251250892877578735,0.902142941951751709,1.196418523788452148,2.008587598800659180,1.745304226875305176,0.594861507415771484,1.157952189445495605,0.137722089886665344,0.637004733085632324,1.401142477989196777,-0.948575913906097412,1.024171233177185059,0.692170977592468262,-0.232968434691429138,1.043216228485107422,1.211519002914428711,0.771202325820922852,0.179023861885070801,1.240549445152282715,17.066492080688476562,0.727404594421386719,1.232650279998779297,0.809671938419342041,0.730552732944488525,0.506486058235168457,1.099994659423828125,1.214575171470642090,0.484822273254394531,-1.973274469375610352,-0.500883221626281738,-0.509509563446044922,1.316760778427124023,-0.938297867774963379,-0.505939841270446777,-1.031286478042602539,2.036033391952514648,0.700920999050140381,0.582872867584228516,1.969697594642639160,1.568574190139770508,1.583755254745483398,1.049326419830322266,0.859286069869995117,2.134871244430541992,0.820635199546813965,-0.506549298763275146,-0.708394110202789307,0.541243016719818115,1.128169894218444824,0.553530931472778320,2.192247867584228516,0.803196132183074951,-0.145931079983711243,-0.387317895889282227,0.161962136626243591,-2.358713150024414062,-0.123652577400207520,-1.030011534690856934,-0.786986649036407471,1.437674045562744141,1.088716745376586914,-0.382214576005935669,1.855424761772155762,0.195547059178352356,-1.630749702453613281,-0.530600786209106445,1.552456498146057129,1.073271274566650391,1.721874952316284180,-0.709515810012817383,0.836940765380859375,-0.330633461475372314,1.616911172866821289,-0.969972908496856689,-1.508942604064941406,-0.312108784914016724,1.403707981109619141,0.776553809642791748,-1.146672129631042480,1.582079291343688965,0.915476143360137939,1.139838814735412598,0.833594858646392822,1.798829317092895508,-0.920986831188201904,-0.069837175309658051,4.851356983184814453,-0.751806497573852539,0.886403143405914307,1.963440418243408203,6.871529102325439453,0.546461582183837891,0.780556142330169678,-1.942024588584899902,-0.285884886980056763,3.596883535385131836,-0.951599180698394775,1.018385767936706543,-1.163594365119934082,-1.705329418182373047,0.132483810186386108,1.300350666046142578,0.641420662403106689,1.811511754989624023,0.421526879072189331,0.690634369850158691,-0.788641393184661865,-0.767828226089477539,1.458242893218994141,1.445675849914550781,-0.408749908208847046,-0.344038873910903931,0.296558409929275513,0.874339222908020020,0.563115477561950684,-1.872805237770080566,-0.605311512947082520,1.722350001335144043,1.816450953483581543,0.707211673259735107,1.043376207351684570,0.630339205265045166,16.457544326782226562,-0.603558897972106934,-1.998253822326660156,1.071605324745178223,-0.317463934421539307,1.596106410026550293,-0.458938121795654297,-1.133560657501220703,2.042666673660278320,1.763448238372802734,-0.749591410160064697,1.510358810424804688,10.741003990173339844,-1.153872370719909668,-0.735824227333068848,0.285179078578948975,0.938081681728363037,0.759148657321929932,1.117033362388610840,-1.035595893859863281,1.742459654808044434,-0.864585876464843750,-0.772706210613250732,-0.113792091608047485,0.518502652645111084,1.370851635932922363,-0.242999285459518433,-0.640151917934417725,0.868947327136993408,-0.471101075410842896,-0.841117441654205322,0.773553192615509033,0.451096087694168091,-0.894295215606689453,1.669280409812927246,0.157254219055175781,0.999413907527923584,1.634586334228515625,0.259075164794921875,-2.916506052017211914,1.130043983459472656,3.480736255645751953,1.347507357597351074,5.245933055877685547,15.036911010742187500,-0.607962906360626221,0.669487714767456055,1.219748854637145996,1.194701313972473145,-3.678002357482910156,0.948014259338378906,1.116224408149719238,1.391706705093383789,0.541216135025024414,-0.226102665066719055,0.085101924836635590,1.505741238594055176,-0.244980260729789734,1.794754147529602051,0.482828199863433838,1.699316382408142090,2.007446527481079102
-1.084510207176208496,0.837315499782562256,0.141126900911331177,1.589874625205993652,1.009189605712890625,3.076480150222778320,-1.074452161788940430,-2.502440929412841797,-0.731518030166625977,0.546776354312896729,0.686550259590148926,1.116575479507446289,-0.716363191604614258,-0.449954628944396973,0.766006946563720703,-0.651406228542327881,1.316940188407897949,0.052648454904556274,1.184028267860412598,-1.374189496040344238,-0.824477136135101318,-1.283151507377624512,1.079249024391174316,0.654564023017883301,1.654329657554626465,0.825625181198120117,1.292306303977966309,0.313748180866241455,0.129662364721298218,1.304881811141967773,0.875511407852172852,1.194421172142028809,1.622811079025268555,1.159005999565124512,-0.422403603792190552,0.552707254886627197,0.338257342576980591,-0.569347143173217773,1.113367080688476562,-0.430248111486434937,2.062608480453491211,-0.777539134025573730,2.224393844604492188,0.272667229175567627,0.655976533889770508,-0.812937319278717041,-1.132711052894592285,1.787684917449951172,1.000361084938049316,1.302450180053710938,1.355665564537048340,1.693858385086059570,0.728499352931976318,0.970128297805786133,0.814609587192535400,-0.640007853507995605,-0.697839021682739258,0.405527204275131226,1.016419649124145508,2.696610689163208008,0.441856652498245239,-0.907579362392425537,-1.535922288894653320,0.109628148376941681,-1.570263743400573730,-0.612974643707275391,2.012769937515258789,1.278993964195251465,-0.638001322746276855,0.979134678840637207,0.775313079357147217,1.361163377761840820,0.318428009748458862,1.079707145690917969,1.336817502975463867,1.802515268325805664,1.512224316596984863,0.659303247928619385,1.281523466110229492,0.276564717292785645,0.485879659652709961,1.350179672241210938,-1.014910936355590820,0.975806593894958496,0.773124516010284424,-0.048187784850597382,1.132892012596130371,0.620508968830108643,0.724417686462402344,0.343290746212005615,1.256223320960998535,16.872611999511718750,0.676207304000854492,1.142631769180297852,0.788788259029388428,0.807072043418884277,0.747715234756469727,0.965053617954254150,1.049681782722473145,0.473794043064117432,-1.979151368141174316,-0.720386326313018799,-0.541426718235015869,1.028549194335937500,-0.736775457859039307,-0.646696627140045166,-0.967534542083740234,1.991161465644836426,0.567792534828186035,0.578401505947113037,1.743872761726379395,1.221374273300170898,1.463176846504211426,0.845377683639526367,0.502658247947692871,1.821163415908813477,0.795530140399932861,-0.478854417800903320,-0.524107158184051514,0.425973027944564819,0.995278775691986084,0.657756447792053223,1.742393612861633301,0.611956059932708740,-0.118524976074695587,-0.422924518585205078,0.177332356572151184,-2.251156330108642578,-0.269357204437255859,-0.904434978961944580,-0.952416121959686279,1.287162780761718750,1.209317803382873535,-0.384463250637054443,1.797654390335083008,0.224429950118064880,-1.522500395774841309,-0.526496767997741699,1.531886100769042969,0.919230997562408447,1.992947101593017578,-0.911458849906921387,1.238173842430114746,-0.263275235891342163,1.382432699203491211,-1.026666879653930664,-1.824708104133605957,-0.388846725225448608,1.271557688713073730,0.580127894878387451,-1.085759878158569336,1.350319027900695801,0.760284662246704102,0.894771397113800049,0.835664689540863037,1.376470923423767090,-1.297507166862487793,-0.407256096601486206,4.709446430206298828,-0.816514790058135986,0.777705609798431396,1.713977813720703125,6.903947353363037109,0.429821729660034180,0.744070947170257568,-1.581754565238952637,-0.366777211427688599,3.518060684204101562,-1.168545842170715332,1.102224946022033691,-1.529194474220275879,-1.820269584655761719,0.283270329236984253,1.317685961723327637,0.761439800262451172,1.452124476432800293,0.547180712223052979,0.826602995395660400,-1.032861113548278809,-0.675902068614959717,1.458480834960937500,1.309850931167602539,-0.940544724464416504,-0.440707236528396606,0.484561920166015625,0.819536805152893066,0.537347853183746338,-1.848913192749023438,-0.689711511135101318,1.196407794952392578,1.725227594375610352,0.584346234798431396,0.849538624286651611,0.642337501049041748,16.290443420410156250,-0.706043541431427002,-2.050823926925659180,0.994479238986968994,-0.172972500324249268,1.796028971672058105,-0.441596567630767822,-1.307938456535339355,1.862909555435180664,1.530074000358581543,-0.651319980621337891,1.284672379493713379,10.316370010375976562,-1.213279008865356445,-0.750876128673553467,0.339249134063720703,0.856385231018066406,0.670955717563629150,1.163161993026733398,-1.002925992012023926,1.869355320930480957,-0.839349329471588135,-0.682909190654754639,-0.151729449629783630,0.581293523311614990,1.210264682769775391,-0.331523180007934570,-0.641829669475555420,0.997851669788360596,-0.141068354249000549,-0.806610643863677979,0.495301514863967896,0.283354312181472778,-0.874859631061553955,1.421953678131103516,0.211047589778900146,1.028168320655822754,1.144375681877136230,0.198703736066818237,-3.109238862991333008,1.229545354843139648,3.517106294631958008,1.144412994384765625,5.049421310424804688,15.358755111694335938,-0.706283092498779297,0.545516014099121094,0.996508657932281494,1.215155243873596191,-3.651239395141601562,0.948687672615051270,0.775595188140869141,1.240663886070251465,0.718100845813751221,-0.218302384018898010,-0.055021096020936966,1.292637944221496582,-0.440154403448104858,1.897102117538452148,0.396458983421325684,1.480825185775756836,2.110795021057128906
0.026461554691195488,-0.049047388136386871,-0.151837334036827087,-0.136216476559638977,0.183723390102386475,0.074783571064472198,-0.036374993622303009,0.071765244007110596,-0.110854595899581909,0.172007530927658081,0.077725633978843689,-0.099736921489238739,-0.021140730008482933,-0.069341920316219330,-0.074175991117954254,0.076652742922306061,-0.093647778034210205,-0.010017546825110912,-0.043510902673006058,-0.276636958122253418,-0.020994687452912331,0.067487001419067383,0.041815899312496185,-0.011869189329445362,-0.141419768333435059,-0.117920592427253723,0.058071445673704147,-0.070470556616783142,-0.011523695662617683,-0.074824318289756775,-0.323960959911346436,0.042984172701835632,0.034416541457176208,-0.127929046750068665,0.019186977297067642,-0.125608891248703003,0.014526877552270889,-0.055754497647285461,-0.047747962176799774,-0.071048684418201447,-0.025728479027748108,-0.056729726493358612,-0.040025595575571060,0.158274471759796143,0.033492311835289001,-0.082650393247604370,-0.160251021385192871,-0.107174649834632874,0.203988388180732727,-0.053433287888765335,-0.036073051393032074,-0.055168528109788895,0.031267851591110229,-0.155249819159507751,0.001349495258182287,-0.147463843226432800,0.035078041255474091,0.111845053732395172,0.063650064170360565,0.020337607711553574,0.086794801056385040,-0.107648938894271851,-0.102985449135303497,0.034725043922662735,-0.057719789445400238,-0.080178774893283844,-0.105953797698020935,-0.025049185380339622,-0.005568466149270535,-0.058674365282058716,-0.025784401223063469,-0.221541121602058411,0.105768293142318726,-0.110263228416442871,0.021417815238237381,-0.041167248040437698,0.093789897859096527,0.083109073340892792,-0.051651235669851303,-0.050626005977392197,-0.103101655840873718,0.000736992107704282,0.029865767806768417,-0.135421484708786011,-0.096877202391624451,-0.019560128450393677,-0.028420288115739822,-0.128827825188636780,-0.025329424068331718,-0.043232459574937820,-0.023196833208203316,0.043403998017311096,-0.005528936628252268,0.072563126683235168,-0.022248713299632072,0.014136635698378086,-0.037172663956880569,0.039361499249935150,0.087231956422328949,0.033765971660614014,0.025159416720271111,-0.117588803172111511,-0.060721296817064285,0.125475496053695679,0.136637389659881592,-0.059963781386613846,0.005527321249246597,-0.023636939004063606,-0.049135319888591766,-0.047912016510963440,-0.120384275913238525,0.027803404256701469,0.009428962133824825,-0.089138843119144440,-0.068393722176551819,-0.047302685678005219,-0.032628040760755539,0.012037504464387894,-0.087666407227516174,-0.188128545880317688,-0.061304662376642227,0.064128927886486053,0.080717898905277252,0.002963990205898881,-0.048259742558002472,-0.007403438445180655,-0.178364589810371399,-0.154878094792366028,0.025172878056764603,0.031486533582210541,0.032015420496463776,0.004873726051300764,-0.132882565259933472,0.063291504979133606,0.105049744248390198,-0.027926100417971611,-0.121141687035560608,-0.029244979843497276,0.031911976635456085,-0.088782586157321930,0.043907340615987778,-0.003472527489066124,0.095243677496910095,0.061021480709314346,0.174522325396537781,-0.256692886352539062,-0.112164251506328583,-0.121025763452053070,-0.012856530956923962,-0.179004415869712830,0.023867268115282059,-0.121617667376995087,-0.045690983533859253,-0.006981890182942152,-0.007317249197512865,-0.123732447624206543,-0.066986732184886932,0.025100726634263992,0.040246613323688507,-0.107708089053630829,0.057615645229816437,0.027553487569093704,0.196843475103378296,-0.058062348514795303,-0.104554086923599243,0.021604284644126892,0.125864133238792419,0.070595569908618927,-0.028629975393414497,0.051889423280954361,-0.136483550071716309,-0.089619375765323639,-0.034418549388647079,-0.027742670848965645,0.142650365829467773,-0.086392089724540710,-0.052130464464426041,-0.131186068058013916,0.081165388226509094,-0.006501853466033936,-0.002377693308517337,-0.059330549091100693,0.122212864458560944,-0.066619381308555603,0.078456208109855652,-0.034650441259145737,-0.173278823494911194,-0.010478558950126171,-0.103013157844543457,0.025628736242651939,0.024194728583097458,0.086501255631446838,-0.034992851316928864,0.110627815127372742,-0.064880475401878357,-0.035537578165531158,-0.010316666215658188,-0.076317645609378815,0.015026725828647614,0.093572467565536499,-0.024663468822836876,-0.065110445022583008,-0.035032201558351517,0.046556584537029266,0.035552628338336945,0.017646180465817451,-0.009840530343353748,0.024025101214647293,-0.040073938667774200,-0.005066394340246916,0.053303707391023636,0.041833326220512390,-0.110428385436534882,-0.025379952043294907,-0.007839131169021130,-0.077162638306617737,0.002419426338747144,-0.147803068161010742,-0.139169692993164062,0.169663906097412109,-0.124540418386459351,-0.082254946231842041,-0.040132693946361542,-0.102107852697372437,-0.146965071558952332,-0.118050761520862579,-0.059449050575494766,-0.117293499410152435,0.091153964400291443,-0.069136984646320343,0.017176354303956032,0.005956503096967936,-0.152681231498718262,0.026161843910813332,-0.159192278981208801,0.143782168626785278,0.186463460326194763,0.065784029662609100,-0.047987982630729675,0.045433755964040756,-0.015403230674564838,0.102895490825176239,-0.099017344415187836,-0.130655139684677124,-0.093200922012329102,-0.129783540964126587,-0.000482481089420617,0.058773238211870193,0.104768343269824982,0.004289778415113688,-0.067893728613853455,0.025140287354588509,0.117956161499023438,-0.007353039924055338,-0.001366041484288871,-0.150923728942871094
-0.798194587230682373,0.587183892726898193,0.388276040554046631,1.040610074996948242,0.729279875755310059,0.171103805303573608,0.994742929935455322,-1.314116954803466797,-0.621145248413085938,0.455068856477737427,0.648778915405273438,0.743084430694580078,0.111796289682388306,-0.922046840190887451,0.636187851428985596,-0.779472768306732178,0.881627202033996582,-0.688235282897949219,0.856822669506072998,-1.044011831283569336,0.223627522587776184,-0.729390203952789307,0.555507659912109375,0.739933133125305176,0.681517958641052246,0.552873611450195312,0.620202422142028809,0.404534012079238892,-0.454289406538009644,0.581908941268920898,0.310661166906356812,0.602679610252380371,1.250023603439331055,0.837776780128479004,-1.173328042030334473,0.687217772006988525,-0.008298620581626892,0.610990524291992188,0.587808012962341309,-0.660284042358398438,0.691680014133453369,-1.187924146652221680,0.879756629467010498,-0.113863177597522736,0.743265986442565918,-1.023396968841552734,-0.886125326156616211,1.132032036781311035,-1.080296039581298828,0.403153806924819946,0.890493512153625488,0.492361694574356079,0.764662444591522217,0.780470132827758789,0.847999632358551025,0.144869193434715271,-0.057783041149377823,0.440147161483764648,0.412160128355026245,6.359642982482910156,-0.543046593666076660,-0.442628353834152222,-0.906259655952453613,-0.938926398754119873,-0.536309599876403809,-0.499207049608230591,-0.603100717067718506,0.716773688793182373,-0.503268241882324219,1.071778297424316406,0.832759439945220947,0.598861515522003174,0.464427888393402100,0.491722315549850464,0.811267554759979248,0.784600436687469482,0.802286744117736816,-0.047586217522621155,0.640078485012054443,0.531372189521789551,0.715729415416717529,0.858845353126525879,-0.707499146461486816,0.784356176853179932,0.735829293727874756,2.327607631683349609,0.826938807964324951,-0.760061621665954590,0.401473671197891235,0.071803115308284760,0.828041911125183105,-2.998202085494995117,0.569259345531463623,0.652162432670593262,0.811955571174621582,0.596907198429107666,0.708953320980072021,0.731342613697052002,0.689358830451965332,0.585087895393371582,-1.214058995246887207,-0.753302156925201416,-0.391054838895797729,0.377759844064712524,0.063188858330249786,-0.890421748161315918,-1.274274230003356934,1.317631840705871582,0.752215743064880371,0.737511873245239258,0.795313537120819092,0.636868894100189209,0.838455140590667725,0.665924251079559326,0.169622823596000671,0.204493179917335510,0.855010509490966797,-0.488294720649719238,-0.084607668220996857,0.815899848937988281,0.741681694984436035,0.738022267818450928,0.711328625679016113,0.646424591541290283,-1.071809172630310059,-0.300027549266815186,-0.589795947074890137,-2.714246749877929688,-1.870282411575317383,-0.401319563388824463,-0.571470677852630615,0.577695429325103760,0.951595366001129150,0.538217067718505859,0.679105639457702637,0.126028284430503845,-1.051379442214965820,0.509046494960784912,0.462732434272766113,0.625471293926239014,0.931021153926849365,-0.423577398061752319,0.850983560085296631,-0.978239178657531738,0.718899846076965332,-0.714303135871887207,-0.134171992540359497,-1.428387999534606934,0.751776278018951416,0.208429247140884399,-0.694742262363433838,0.963505685329437256,0.601531863212585449,0.830848515033721924,1.091564178466796875,0.649158239364624023,-0.151981160044670105,3.548256635665893555,1.555895566940307617,-0.897576987743377686,-3.556730985641479492,0.753050208091735840,1.520988345146179199,0.764013886451721191,0.448668152093887329,-0.429521799087524414,-0.601929664611816406,1.403008699417114258,-0.618880510330200195,0.770663380622863770,-0.664317131042480469,-0.752322971820831299,1.164749264717102051,0.331985175609588623,0.541822016239166260,0.319521188735961914,0.528545200824737549,0.502483546733856201,-0.782009065151214600,-0.439242422580718994,0.931472599506378174,1.106945276260375977,-1.725971102714538574,-1.820353388786315918,0.563067913055419922,0.880184769630432129,0.457987546920776367,-0.573318600654602051,-0.786644399166107178,0.365224599838256836,0.815262913703918457,0.610509514808654785,0.262049257755279541,0.665771424770355225,-2.278325796127319336,0.006930052302777767,-1.065799474716186523,0.622350573539733887,-0.157579779624938965,0.222628906369209290,-0.221217066049575806,-0.718200027942657471,0.047951046377420425,0.780277490615844727,-0.304635345935821533,0.926243305206298828,0.599499821662902832,-0.943763673305511475,-0.204631149768829346,0.554040551185607910,0.526406407356262207,0.485090911388397217,0.625285506248474121,-0.629610717296600342,0.035138059407472610,-0.705509126186370850,-0.214819818735122681,0.037343077361583710,0.452841997146606445,0.463226139545440674,0.456225007772445679,-0.343927025794982910,0.674039423465728760,0.136275961995124817,-1.037838339805603027,0.512171685695648193,-0.286317318677902222,-0.697212338447570801,0.375937134027481079,0.666544735431671143,0.543884277343750000,0.570956408977508545,-0.004532631486654282,-1.721582889556884766,0.959266006946563721,-1.371914744377136230,0.759304344654083252,-3.980655670166015625,-7.077069282531738281,-0.311150491237640381,0.446172505617141724,0.516888499259948730,0.816308975219726562,-15.149711608886718750,0.757849752902984619,0.973840236663818359,0.893100619316101074,1.998821020126342773,-0.063329599797725677,1.077874183654785156,0.599531590938568115,-1.210461616516113281,0.902899920940399170,-1.607396960258483887,1.399579048156738281,-0.528696119785308838
1.753312945365905762,-1.938099384307861328,-1.605187654495239258,-2.355661392211914062,-1.478673458099365234,1.904879689216613770,1.982815027236938477,3.980953931808471680,0.737550199031829834,-1.669916629791259766,-1.454364776611328125,-1.762921452522277832,-2.478806972503662109,1.134759545326232910,-1.422220826148986816,1.966893196105957031,-1.803024768829345703,1.211221337318420410,-1.640777826309204102,2.190182924270629883,-0.633342504501342773,1.460737586021423340,-2.040295600891113281,-3.178484916687011719,-1.361897468566894531,-1.770829319953918457,-1.179523110389709473,-2.084819316864013672,-0.363529741764068604,-1.485860705375671387,-2.003822326660156250,-1.519473910331726074,-3.009392261505126953,-1.996215701103210449,2.573949813842773438,-1.675268650054931641,2.108687639236450195,-0.935339033603668213,-1.635216116905212402,1.178110361099243164,-1.487370371818542480,1.455314993858337402,-2.961302995681762695,-1.192023873329162598,-2.039176225662231445,1.068973660469055176,2.280176639556884766,-0.807829856872558594,9.794362068176269531,-1.743800282478332520,-3.066312313079833984,-1.607615709304809570,-1.523391246795654297,-3.728498220443725586,-1.577253580093383789,0.723612189292907715,-0.128562927246093750,-1.543305158615112305,-1.652384161949157715,-3.995576858520507812,1.933564186096191406,0.877887964248657227,1.514641284942626953,2.305463790893554688,1.195115804672241211,1.742931723594665527,5.131806850433349609,-1.485423326492309570,-0.727941811084747314,-1.419049382209777832,-1.802716255187988281,-1.015828251838684082,-0.446742236614227295,-2.009655714035034180,-1.228010654449462891,0.731000244617462158,-1.685506224632263184,0.144751772284507751,-1.739555120468139648,-3.143827199935913086,-1.009472727775573730,-2.598598003387451172,1.990977168083190918,-1.773025751113891602,-1.182717919349670410,-4.798145771026611328,-2.923263311386108398,2.775794506072998047,-2.165820121765136719,-1.201334714889526367,-1.740968942642211914,6.351391315460205078,-1.587307214736938477,-1.468406200408935547,-1.464010238647460938,-1.269669055938720703,-1.948580741882324219,-2.075967788696289062,-2.558772563934326172,-1.166258454322814941,3.047311544418334961,1.959749937057495117,0.971480906009674072,-1.108568429946899414,-0.407656520605087280,2.023866415023803711,1.757308602333068848,-2.229056835174560547,-1.615438342094421387,-1.386875033378601074,-0.687529146671295166,-1.792909264564514160,-2.057017803192138672,-1.193143248558044434,2.017949819564819336,0.005077968817204237,-1.409003019332885742,0.019766602665185928,1.400974631309509277,-1.258177280426025391,-1.358088612556457520,-1.585160493850708008,-1.017583012580871582,-1.924279808998107910,2.079395294189453125,0.770963549613952637,0.441114515066146851,3.848256349563598633,0.374309599399566650,1.750670552253723145,1.236304521560668945,-0.933635413646697998,-1.454360842704772949,-0.969881355762481689,-1.125517249107360840,1.612872362136840820,1.991671919822692871,-1.628695130348205566,-0.318499356508255005,-1.392100691795349121,-0.846671462059020996,1.185304522514343262,-0.490019947290420532,4.238487720489501953,-1.803081393241882324,1.256738901138305664,1.607580900192260742,0.761566996574401855,-1.711846947669982910,-0.860713183879852295,1.588682532310485840,-1.816955566406250000,-1.829021573066711426,-1.181247830390930176,-2.113562345504760742,-2.160206794738769531,-0.982015907764434814,0.491700112819671631,0.425208240747451782,1.258874058723449707,4.400564670562744141,-1.287837266921997070,5.090767860412597656,-1.288218379020690918,-1.527090072631835938,1.167729496955871582,0.119371794164180756,-3.892096757888793945,1.268865585327148438,-2.079791545867919922,1.804316163063049316,1.958751916885375977,-3.471848249435424805,-1.904887318611145020,-1.097502708435058594,-1.087788462638854980,-1.635864615440368652,-0.946785867214202881,3.458261728286743164,1.000890374183654785,-2.291105985641479492,-0.956814527511596680,2.333215951919555664,-0.021417697891592979,-1.034464120864868164,-1.140031456947326660,-1.181755781173706055,2.813705444335937500,0.985756516456604004,-1.497670173645019531,-0.848548769950866699,-1.570418477058410645,-1.143471956253051758,-1.488433361053466797,8.257013320922851562,-0.450209289789199829,1.338320493698120117,-1.273553133010864258,-1.382640480995178223,-0.810552120208740234,1.151076555252075195,0.372699350118637085,1.902457952499389648,-2.188134431838989258,1.697958707809448242,-0.150259807705879211,13.860950469970703125,2.245725154876708984,-0.782331407070159912,-1.402961611747741699,-1.380200743675231934,-1.345886349678039551,-1.382944107055664062,1.264841675758361816,-1.882407784461975098,2.069900035858154297,-0.470299899578094482,-1.122678160667419434,-1.380918025970458984,-1.891389727592468262,0.845451772212982178,0.780832409858703613,-1.742488384246826172,-1.433293819427490234,1.547362804412841797,-1.921226501464843750,-0.921848833560943604,-0.036103587597608566,-1.081238627433776855,-0.716494739055633545,-2.278070926666259766,-1.029753684997558594,-0.897441864013671875,3.172179460525512695,-1.295196771621704102,0.452495843172073364,-1.923015713691711426,7.670057296752929688,6.253808975219726562,2.267053365707397461,-1.781654596328735352,-1.638475656509399414,-1.650142788887023926,7.724686622619628906,-2.095110654830932617,-1.946285247802734375,-2.054157257080078125,-2.903564929962158203,0.150733321905136108,-3.267483234405517578,-1.053019642829895020,1.771845221519470215,-1.176794886589050293,2.857577562332153320,-4.438815593719482422,0.620036900043487549
0.187701031565666199,-0.579329371452331543,1.551058530807495117,-0.566324234008789062,-0.220835357904434204,-3.407671451568603516,3.456684112548828125,-0.284933954477310181,0.752096056938171387,-0.458738237619400024,-0.336406737565994263,-0.568091511726379395,3.127725362777709961,0.575253427028656006,-0.518152534961700439,0.320492774248123169,-0.116689108312129974,1.114215373992919922,-0.589736402034759521,2.438097000122070312,2.730760097503662109,0.161807328462600708,-0.446216881275177002,-0.421508580446243286,-0.495815157890319824,-0.508693158626556396,0.201748088002204895,-0.619009435176849365,-1.361907482147216797,-0.237252444028854370,-0.180158361792564392,-0.491506159305572510,-1.122606635093688965,-0.715038478374481201,-0.254013478755950928,-0.372922599315643311,-0.370733976364135742,1.163699507713317871,-0.466220736503601074,0.577038705348968506,0.767960250377655029,0.082929365336894989,-0.588790237903594971,1.633096814155578613,-0.602119505405426025,0.528550863265991211,0.638252496719360352,-1.071455121040344238,-0.045417062938213348,0.513855755329132080,-0.193685710430145264,-0.389142543077468872,-0.245619416236877441,1.320012807846069336,-0.424731582403182983,1.427681326866149902,0.533366858959197998,-1.049464225769042969,-0.396554231643676758,0.716010630130767822,0.030540378764271736,0.975172102451324463,0.786208808422088623,1.073691129684448242,0.633594691753387451,1.367523670196533203,-2.507731914520263672,-0.159463942050933838,0.724095821380615234,-0.801953375339508057,-0.436914741992950439,0.171012714505195618,-1.522795319557189941,-0.242087155580520630,-0.254493266344070435,-0.688978254795074463,-0.636032581329345703,-1.623266577720642090,-0.149421095848083496,0.077007316052913666,-1.671620368957519531,0.097679346799850464,0.836838841438293457,-0.482237935066223145,-0.304378926753997803,0.240017116069793701,-0.939110517501831055,0.236894562840461731,-0.365140736103057861,-1.192960262298583984,-0.503229677677154541,-9.527045249938964844,-0.385940492153167725,-0.619326949119567871,-0.522068262100219727,-0.926680743694305420,-0.428369939327239990,-0.349625855684280396,-0.489347398281097412,-0.781639873981475830,-0.882721662521362305,0.228099405765533447,0.953031539916992188,0.159012287855148315,0.607304573059082031,0.030536193400621414,1.144542336463928223,0.647506535053253174,-0.051890961825847626,-0.570715129375457764,-1.221984028816223145,-0.611045420169830322,-1.335926890373229980,-0.260264486074447632,0.040918868035078049,2.238173484802246094,-0.721286058425903320,0.260888338088989258,-2.797835588455200195,-0.461310058832168579,-0.126519814133644104,-0.520784258842468262,0.620572507381439209,-0.672802805900573730,0.874317348003387451,0.489370763301849365,1.308534145355224609,-2.276352643966674805,-0.273915618658065796,0.672562479972839355,0.108024179935455322,0.641437888145446777,-0.848395586013793945,1.165853500366210938,0.293095499277114868,0.456916213035583496,0.661266028881072998,0.437775284051895142,-0.746656775474548340,-0.358436316251754761,1.291666388511657715,0.550151646137237549,-0.322404325008392334,2.896408557891845703,-0.163412839174270630,0.114933297038078308,1.114177584648132324,0.622479319572448730,-0.105958871543407440,-0.092308796942234039,0.154220178723335266,-0.755901217460632324,-0.669608831405639648,-0.596835672855377197,-0.809593498706817627,0.598217010498046875,0.756964206695556641,-0.144042059779167175,-1.836547255516052246,0.364564508199691772,3.909978151321411133,1.170623064041137695,-7.673071384429931641,-0.990929186344146729,-0.452231794595718384,0.629105269908905029,0.409119576215744019,-3.406647205352783203,1.087327241897583008,-0.344746500253677368,0.795162916183471680,1.266406178474426270,-0.569245696067810059,0.006075359415262938,-0.324397355318069458,0.071881249547004700,-0.067596249282360077,-1.055540800094604492,1.281590700149536133,0.624912798404693604,-0.080781735479831696,-0.571362912654876709,2.117257595062255859,-0.029083304107189178,-1.294128894805908203,-0.487178593873977661,-0.288432657718658447,0.316814839839935303,-2.182845354080200195,-0.268442362546920776,-0.255700558423995972,-0.435279428958892822,-0.791189670562744141,-0.241055354475975037,-14.453923225402832031,0.841587662696838379,1.670155167579650879,-0.925150334835052490,1.811436533927917480,-0.460530817508697510,1.115348815917968750,1.073662877082824707,-0.970789790153503418,-0.398862034082412720,-1.197441220283508301,-0.831903815269470215,-21.719852447509765625,1.524121642112731934,0.989400923252105713,-0.865027070045471191,-0.430941820144653320,-0.698032557964324951,-0.442110300064086914,0.248647049069404602,-0.883420944213867188,1.243882656097412109,1.079258203506469727,0.534988343715667725,-0.558663666248321533,-0.239060610532760620,0.871341228485107422,0.563472270965576172,-0.269346386194229126,1.035619020462036133,1.424408912658691406,-0.120875738561153412,-1.105731844902038574,1.235595464706420898,-0.184223130345344543,-1.934908270835876465,-0.218080446124076843,-0.059473585337400436,-1.427806377410888672,0.683264017105102539,-0.509326636791229248,-5.769511699676513672,-0.180738121271133423,-3.051162958145141602,-11.094052314758300781,1.614263176918029785,-0.548626303672790527,-0.495531409978866577,-0.217282518744468689,-7.185864925384521484,-0.257787078619003296,-0.345695644617080688,-0.228286087512969971,2.346741914749145508,0.463658094406127930,0.536715686321258545,-0.489387333393096924,1.054308056831359863,-0.926861166954040527,3.229869365692138672,0.063315972685813904,-3.265525341033935547
-1.016388773918151855,0.593877196311950684,0.158932685852050781,1.723463058471679688,0.942576944828033447,3.069657325744628906,-1.095623493194580078,-2.597097396850585938,-0.686429083347320557,0.767374575138092041,0.781654596328735352,1.163618564605712891,-0.489775568246841431,-0.542826652526855469,0.932308375835418701,-0.391282349824905396,1.565149188041687012,0.073136821389198303,1.325844883918762207,-1.281641721725463867,-0.550673365592956543,-1.358795166015625000,1.114265322685241699,0.906664669513702393,1.720774531364440918,0.740516066551208496,1.510972023010253906,0.294480353593826294,0.127148792147636414,1.334827423095703125,0.953873455524444580,1.258378386497497559,1.676999449729919434,1.046660542488098145,-0.361778616905212402,0.602675437927246094,0.354068338871002197,-0.316992104053497314,1.128974318504333496,-0.224288254976272583,2.199302673339843750,-0.822980701923370361,2.626134395599365234,0.073820941150188446,0.611976206302642822,-0.673596084117889404,-1.144184231758117676,1.585432648658752441,1.054316520690917969,1.295536160469055176,1.291993618011474609,2.000360250473022461,0.665912866592407227,0.885373353958129883,0.960676670074462891,-0.816916108131408691,-0.631433665752410889,0.549505710601806641,1.003162741661071777,2.701894521713256836,0.473607957363128662,-0.705926120281219482,-1.481230497360229492,0.284209430217742920,-1.485033392906188965,-0.536603510379791260,2.143301010131835938,1.102766990661621094,-0.750813186168670654,0.904691874980926514,0.826754212379455566,1.340889930725097656,0.275242269039154053,0.920967340469360352,1.233896374702453613,1.873401522636413574,1.751499295234680176,0.799679875373840332,1.398218274116516113,0.094771437346935272,0.590910851955413818,1.359382629394531250,-1.014554977416992188,0.917304873466491699,0.693247675895690918,-0.167144015431404114,1.302260637283325195,0.927220046520233154,0.860291004180908203,0.225084573030471802,1.160619974136352539,16.960367202758789062,0.651903748512268066,1.160122275352478027,0.683028995990753174,0.796188116073608398,0.698417901992797852,1.166859269142150879,1.203477740287780762,0.305592954158782959,-1.971014618873596191,-0.549151897430419922,-0.471039712429046631,1.346249699592590332,-0.797568798065185547,-0.549578189849853516,-0.806144356727600098,1.880917668342590332,0.796057045459747314,0.736977159976959229,1.979241132736206055,1.526885628700256348,1.444540143013000488,0.868227899074554443,0.714252233505249023,1.922258019447326660,0.722528100013732910,-0.544981837272644043,-0.580331623554229736,0.425021141767501831,1.128170251846313477,0.695750832557678223,2.231232643127441406,0.786476671695709229,-0.207196429371833801,-0.398850172758102417,0.097626633942127228,-2.542183399200439453,-0.065284445881843567,-0.960143566131591797,-0.851143360137939453,1.398964166641235352,1.184051156044006348,-0.329151958227157593,1.885050296783447266,0.133794531226158142,-1.329830169677734375,-0.499934107065200806,1.648176431655883789,1.141984939575195312,1.806802630424499512,-0.985116899013519287,1.264143347740173340,-0.181224390864372253,1.359340310096740723,-0.943524956703186035,-1.407332658767700195,-0.318352937698364258,1.487600445747375488,0.754449009895324707,-1.140198707580566406,1.674481630325317383,0.738792359828948975,0.882831692695617676,0.948551177978515625,1.646935224533081055,-1.173662900924682617,-0.272511750459671021,5.017714023590087891,-0.947859406471252441,0.727224528789520264,1.898090839385986328,6.925291538238525391,0.526845276355743408,0.691513657569885254,-1.695886492729187012,-0.374751716852188110,3.464147567749023438,-1.098777770996093750,1.062070608139038086,-1.252043247222900391,-1.847023844718933105,0.290915668010711670,1.195960283279418945,0.723263204097747803,1.743191838264465332,0.494807332754135132,0.705233693122863770,-0.895509660243988037,-0.659720301628112793,1.378178834915161133,1.472287416458129883,-0.661877751350402832,-0.321529656648635864,0.489669948816299438,0.860462427139282227,0.672980964183807373,-1.828682541847229004,-0.449536174535751343,1.625576376914978027,1.951683044433593750,0.598840951919555664,0.909362554550170898,0.748169422149658203,16.381525039672851562,-0.496970266103744507,-2.112026214599609375,1.093866229057312012,-0.305418312549591064,1.710997939109802246,-0.384487777948379517,-1.228849172592163086,1.997640728950500488,1.618443012237548828,-0.769381642341613770,1.492648243904113770,10.533236503601074219,-1.214664816856384277,-0.702831089496612549,0.295401632785797119,1.133292436599731445,0.652454972267150879,1.116712808609008789,-0.894523501396179199,1.930841326713562012,-0.815001964569091797,-0.595397055149078369,-0.093102775514125824,0.431508034467697144,1.277900338172912598,-0.365431904792785645,-0.629012942314147949,0.837175011634826660,-0.390810221433639526,-0.879906713962554932,0.641747534275054932,0.152500271797180176,-0.709112584590911865,1.599551558494567871,-0.071686320006847382,1.010296821594238281,1.444235444068908691,0.316149532794952393,-2.885229825973510742,1.182674169540405273,3.524234294891357422,1.209014892578125000,5.061900615692138672,14.840714454650878906,-0.693034887313842773,0.666250050067901611,1.176313042640686035,1.425519466400146484,-3.679425001144409180,0.799729108810424805,0.708394229412078857,1.556403160095214844,0.622535645961761475,-0.334430158138275146,-0.055748932063579559,1.312886118888854980,-0.414385259151458740,1.809282302856445312,0.473979324102401733,1.683440327644348145,2.241615533828735352
-1.013679146766662598,0.625103652477264404,0.085357464849948883,1.689861893653869629,0.866998076438903809,3.131058454513549805,-1.080790519714355469,-2.477185964584350586,-0.636969923973083496,0.817114353179931641,0.879873692989349365,1.145940423011779785,-0.409647881984710693,-0.477806150913238525,0.825521051883697510,-0.449767291545867920,1.567496180534362793,0.050017878413200378,1.412053823471069336,-1.280240535736083984,-0.564559042453765869,-1.386736750602722168,1.074913978576660156,1.026790976524353027,1.573521614074707031,0.921911120414733887,1.565117001533508301,0.558102309703826904,0.163819104433059692,1.489744663238525391,0.890588760375976562,1.303221464157104492,1.448425769805908203,1.085685014724731445,-0.171746015548706055,0.660759091377258301,0.488969802856445312,-0.343277394771575928,1.267400622367858887,-0.326646983623504639,2.196972846984863281,-0.690250277519226074,2.415292978286743164,0.065117277204990387,0.707623600959777832,-0.819285690784454346,-1.182122111320495605,1.651359915733337402,0.949147939682006836,1.246363639831542969,1.293113589286804199,2.072782993316650391,0.863191187381744385,0.899149775505065918,0.897850036621093750,-0.716631472110748291,-0.641199946403503418,0.272604286670684814,0.960489511489868164,3.019052267074584961,0.563882350921630859,-0.751230478286743164,-1.235509634017944336,0.283302128314971924,-1.527017235755920410,-0.501513779163360596,2.184195518493652344,1.168466567993164062,-0.675111830234527588,0.964194059371948242,0.631349682807922363,1.396592378616333008,0.284933388233184814,1.035135388374328613,1.339249730110168457,1.822305440902709961,1.616966009140014648,0.698117852210998535,1.287444114685058594,0.026134038344025612,0.661665618419647217,1.406582951545715332,-0.859242320060729980,0.997519314289093018,0.636502385139465332,-0.232864156365394592,1.033817172050476074,0.995730280876159668,0.762981712818145752,0.157208591699600220,1.286983489990234375,16.982204437255859375,0.695073902606964111,1.108204245567321777,0.773801445960998535,0.697181105613708496,0.723707675933837891,1.161944150924682617,1.234984159469604492,0.395681858062744141,-1.902454733848571777,-0.625653803348541260,-0.471883296966552734,1.311571478843688965,-1.017394304275512695,-0.728088915348052979,-0.993557393550872803,2.136412858963012695,0.687987446784973145,0.561428904533386230,2.009788036346435547,1.387580752372741699,1.462574720382690430,1.079051971435546875,0.742011189460754395,1.838111877441406250,0.591448366641998291,-0.518937885761260986,-0.438300579786300659,0.392744153738021851,1.121977925300598145,0.683249235153198242,2.058477878570556641,0.872250676155090332,-0.067691415548324585,-0.511236429214477539,0.413149923086166382,-2.131293773651123047,-0.100108727812767029,-1.081914186477661133,-0.788514018058776855,1.340561866760253906,1.114173054695129395,-0.264612555503845215,1.704343199729919434,-0.054212260991334915,-1.419654965400695801,-0.494495332241058350,1.649129986763000488,1.034346461296081543,1.815639615058898926,-0.874758064746856689,1.123588204383850098,-0.287418752908706665,1.550415873527526855,-0.881839632987976074,-1.509438037872314453,-0.410399109125137329,1.499404668807983398,0.623059809207916260,-1.264231920242309570,1.703938245773315430,0.775979101657867432,1.027534127235412598,0.849571108818054199,1.685066819190979004,-1.140386104583740234,-0.339916408061981201,4.485553264617919922,-0.958255648612976074,0.788994252681732178,1.838734507560729980,6.909815311431884766,0.444377928972244263,0.718448400497436523,-1.787480354309082031,-0.321092933416366577,3.593233108520507812,-1.058087944984436035,0.981765866279602051,-1.312813758850097656,-1.715921759605407715,0.234844729304313660,1.277910828590393066,0.619062542915344238,1.714191317558288574,0.380780756473541260,0.583132743835449219,-0.904903590679168701,-0.759221613407135010,1.423777341842651367,1.503113389015197754,-0.599982738494873047,-0.449228018522262573,0.327478200197219849,0.832814037799835205,0.648406147956848145,-1.887129902839660645,-0.686402916908264160,1.517022371292114258,1.842716217041015625,0.520823717117309570,0.916285932064056396,0.660070717334747314,16.518096923828125000,-0.529692888259887695,-2.018643856048583984,1.135388970375061035,-0.291807979345321655,1.746331810951232910,-0.458788812160491943,-1.196987032890319824,2.010746955871582031,1.761226177215576172,-0.713793218135833740,1.486738324165344238,10.701259613037109375,-1.099728345870971680,-0.636811137199401855,0.373287767171859741,0.929450869560241699,0.778312683105468750,1.000005006790161133,-0.842021703720092773,1.861326217651367188,-0.801044464111328125,-0.553179442882537842,0.044945284724235535,0.688967525959014893,1.310794353485107422,-0.168353736400604248,-0.347091138362884521,0.995524346828460693,-0.621371984481811523,-0.895169198513031006,0.629831314086914062,0.220847129821777344,-0.779182732105255127,1.492191076278686523,0.153402745723724365,1.057312965393066406,1.593639373779296875,0.333371162414550781,-2.797414541244506836,1.014972090721130371,3.547316789627075195,1.345031738281250000,5.261714935302734375,14.891131401062011719,-0.594861507415771484,0.581093251705169678,1.177380323410034180,1.147387146949768066,-3.730954170227050781,0.942758858203887939,0.851819276809692383,1.435317158699035645,0.596955239772796631,-0.199841022491455078,0.021428395062685013,1.206372380256652832,-0.331749439239501953,1.817542552947998047,0.706202268600463867,1.684323668479919434,2.187520980834960938
-1.199290275573730469,-0.083885632455348969,1.934681415557861328,1.136650443077087402,0.595611035823822021,-3.902492284774780273,1.416343927383422852,-4.372709274291992188,-0.022318767383694649,0.295800656080245972,0.229876205325126648,0.773823082447052002,2.341931819915771484,0.235963389277458191,0.252813220024108887,-0.109693378210067749,1.046704053878784180,0.102176651358604431,1.087587237358093262,-0.059425342828035355,3.752716064453125000,-1.082007169723510742,0.586014330387115479,0.027609273791313171,1.292971014976501465,0.960592150688171387,0.677400708198547363,-0.258820623159408569,-1.633087754249572754,1.036121726036071777,0.649500012397766113,0.657008409500122070,1.018345832824707031,1.051326870918273926,-0.117808222770690918,0.338220059871673584,-0.855130195617675781,1.439860939979553223,0.458833515644073486,0.434741348028182983,0.398036092519760132,-0.389407813549041748,2.896348714828491211,1.493000149726867676,-0.291206121444702148,0.357336252927780151,-1.431594848632812500,0.379171073436737061,-2.186136484146118164,-0.970718681812286377,0.573441922664642334,2.733719110488891602,-0.210372656583786011,1.274328827857971191,0.986393988132476807,1.050303697586059570,1.011853575706481934,-0.058628179132938385,0.641493260860443115,1.171599507331848145,-1.332217931747436523,0.432752341032028198,-0.836474716663360596,1.521858811378479004,-1.691045284271240234,0.642720639705657959,-9.145036697387695312,0.992508590221405029,0.988367199897766113,0.113490223884582520,-0.278393447399139404,-0.319733738899230957,-1.676294445991516113,0.943521857261657715,1.076331377029418945,-0.220425263047218323,1.371449947357177734,-0.598268210887908936,1.466482520103454590,0.791373193264007568,-0.958208560943603516,0.359275907278060913,-0.875044167041778564,0.566000521183013916,-0.076446019113063812,1.666004538536071777,0.191888064146041870,-0.700667560100555420,0.562777936458587646,-0.145946159958839417,1.137962579727172852,-10.123700141906738281,-0.029181465506553650,1.197904825210571289,0.198219805955886841,-0.103953227400779724,0.236512079834938049,1.383919954299926758,1.804336071014404297,-0.493589580059051514,-3.122236490249633789,-0.719830513000488281,0.197346642613410950,1.001685142517089844,-0.095538221299648285,0.055996496230363846,-0.763798773288726807,1.018025159835815430,0.155485227704048157,-0.212117254734039307,0.651972472667694092,1.002241134643554688,0.688332319259643555,0.406389474868774414,-1.829938411712646484,2.803934812545776367,-0.091315582394599915,0.084006860852241516,-1.087993621826171875,-0.698526263236999512,0.965885877609252930,-0.096359238028526306,1.204103946685791016,0.403492510318756104,0.602828025817871094,0.408202260732650757,-0.007755075115710497,-3.730700731277465820,0.047915078699588776,-0.578453719615936279,-0.645340859889984131,-0.415059566497802734,0.556453645229339600,1.843007326126098633,0.902538180351257324,-1.839102506637573242,-2.281572103500366211,1.896565556526184082,0.373981177806854248,0.329665750265121460,1.214940428733825684,-0.076396495103836060,-0.014051615260541439,-1.753760218620300293,1.814514160156250000,-0.470021784305572510,-0.954677820205688477,0.227290034294128418,0.924811065196990967,-1.950236320495605469,-1.145422577857971191,1.386455297470092773,0.197326630353927612,0.426078617572784424,0.684106469154357910,1.206303119659423828,1.011647224426269531,0.488035291433334351,0.778744637966156006,-0.551420032978057861,3.941350936889648438,1.378498673439025879,-1.567770004272460938,-0.213698595762252808,0.269909888505935669,-3.008175373077392578,1.612683534622192383,-1.130968093872070312,-0.359847635030746460,0.801241159439086914,-1.707045793533325195,-2.299672603607177734,0.638300418853759766,1.800149440765380859,-1.010945081710815430,0.926840007305145264,0.211793377995491028,-0.082529090344905853,-0.520052492618560791,0.646866917610168457,1.631340026855468750,-0.203301623463630676,0.878139793872833252,0.434720665216445923,-0.653747618198394775,0.840094864368438721,-0.354597628116607666,-1.884297013282775879,-1.538768768310546875,1.047869205474853516,0.348780184984207153,-0.764922320842742920,1.058622121810913086,0.298536539077758789,-14.286384582519531250,0.850637614727020264,-3.308788537979125977,0.591009855270385742,1.028707623481750488,0.837103486061096191,1.872318267822265625,-1.252163648605346680,-1.222898125648498535,1.962646484375000000,-1.966147184371948242,-1.301516294479370117,-20.191978454589843750,-1.808039069175720215,0.666359305381774902,-0.375607699155807495,0.873179018497467041,0.577930152416229248,1.034980654716491699,-0.270819753408432007,-0.924893796443939209,-1.201002478599548340,1.262985706329345703,1.484552502632141113,-0.413507610559463501,1.152545690536499023,0.654169023036956787,0.178939267992973328,0.745735943317413330,0.317922919988632202,-0.650537729263305664,0.338394731283187866,-0.832361817359924316,0.239488348364830017,1.142659783363342285,-1.247732400894165039,0.304278165102005005,0.509001255035400391,-1.132348299026489258,-4.567614555358886719,1.081670522689819336,-10.763075828552246094,1.032124042510986328,-12.066359519958496094,-9.619215011596679688,0.604754626750946045,0.038318954408168793,1.119570970535278320,1.132772684097290039,-8.703069686889648438,-0.759786367416381836,0.550775706768035889,1.749978184700012207,3.445549726486206055,-0.730711460113525391,0.860170185565948486,0.185954734683036804,0.455308079719543457,1.217436313629150391,2.826421499252319336,1.628294348716735840,-2.825233697891235352
-0.973393321037292480,0.652857542037963867,0.238886088132858276,1.579927802085876465,0.789893448352813721,3.103945970535278320,-1.087566971778869629,-2.575483798980712891,-0.642680346965789795,0.788665235042572021,0.809067368507385254,1.234803557395935059,-0.439775735139846802,-0.452064871788024902,1.080989122390747070,-0.552951872348785400,1.449269056320190430,0.166471958160400391,1.232994079589843750,-1.091989636421203613,-0.557173907756805420,-1.165291786193847656,1.105739712715148926,0.792433381080627441,1.674507856369018555,0.846979200839996338,1.511156916618347168,0.486540317535400391,0.133883684873580933,1.236427545547485352,0.952567994594573975,1.239789843559265137,1.322248935699462891,1.106875538825988770,-0.339631110429763794,0.681740224361419678,0.422450155019760132,-0.356244117021560669,1.194639801979064941,-0.497619450092315674,2.314394235610961914,-0.802459061145782471,2.558185338973999023,0.060260895639657974,0.609494507312774658,-0.754515707492828369,-1.110329270362854004,1.959681749343872070,1.028309226036071777,1.304364085197448730,1.506447672843933105,1.927591323852539062,0.701248645782470703,0.749262094497680664,0.847913563251495361,-0.665742397308349609,-0.601228356361389160,0.367104947566986084,0.955239832401275635,2.641860485076904297,0.477344810962677002,-0.743520319461822510,-1.448320269584655762,0.198859989643096924,-1.443098664283752441,-0.527118861675262451,2.411136150360107422,1.140218377113342285,-0.638736963272094727,1.101489663124084473,0.722082078456878662,1.383300423622131348,0.463882148265838623,1.024273037910461426,1.254480481147766113,1.863371610641479492,1.557525634765625000,0.820470333099365234,1.189060807228088379,0.150728359818458557,0.584980070590972900,1.498035669326782227,-1.017824888229370117,1.077529191970825195,0.758947253227233887,-0.098897404968738556,1.241857051849365234,0.805615425109863281,0.710234344005584717,0.258979886770248413,1.095355391502380371,17.013448715209960938,0.785899102687835693,1.138739347457885742,0.885824143886566162,0.727597057819366455,0.518968284130096436,1.277217626571655273,1.341001629829406738,0.406117528676986694,-2.080485105514526367,-0.563561081886291504,-0.571563661098480225,1.374733686447143555,-1.012473464012145996,-0.493860602378845215,-0.899429678916931152,2.042776107788085938,0.624857544898986816,0.627593040466308594,2.022447824478149414,1.528765201568603516,1.587116599082946777,0.956778943538665771,0.761102914810180664,1.869729757308959961,0.667116999626159668,-0.455066204071044922,-0.509522438049316406,0.445724457502365112,1.129972934722900391,0.704657495021820068,2.195622205734252930,0.685982525348663330,0.023093197494745255,-0.425961881875991821,0.175764799118041992,-2.325611591339111328,-0.270220100879669189,-1.092352986335754395,-0.897635579109191895,1.538398742675781250,1.079317331314086914,-0.389006674289703369,1.876313209533691406,0.342855304479598999,-1.468003392219543457,-0.524348199367523193,1.673626065254211426,1.101584553718566895,2.053973197937011719,-0.960681676864624023,1.175232648849487305,-0.368710190057754517,1.345951676368713379,-0.908197820186614990,-1.441849112510681152,-0.348888903856277466,1.529746890068054199,0.861073672771453857,-1.355175614356994629,1.589709520339965820,0.745542526245117188,1.013399839401245117,0.809565722942352295,1.526126027107238770,-1.155012011528015137,-0.397396385669708252,4.647856712341308594,-0.782570242881774902,0.719264626502990723,1.790622115135192871,6.858788967132568359,0.480408549308776855,0.828002870082855225,-1.827946186065673828,-0.427655935287475586,3.757770299911499023,-1.032532930374145508,1.119623422622680664,-1.305819630622863770,-1.981421589851379395,0.242137193679809570,1.317559361457824707,0.629703342914581299,1.693556547164916992,0.459078460931777954,0.700862884521484375,-0.867351949214935303,-0.623907685279846191,1.454902768135070801,1.403900027275085449,-0.590484201908111572,-0.492147415876388550,0.470289230346679688,0.997865498065948486,0.604156970977783203,-1.991755723953247070,-0.572021007537841797,1.503726840019226074,1.797251462936401367,0.575966000556945801,0.937183380126953125,0.660778999328613281,16.293653488159179688,-0.488229811191558838,-2.132720470428466797,1.007745146751403809,-0.163108363747596741,1.756055474281311035,-0.494450151920318604,-1.190293431282043457,2.024333238601684570,1.591755628585815430,-0.717440783977508545,1.537709712982177734,10.818501472473144531,-1.123151302337646484,-0.823495268821716309,0.335422784090042114,0.781079888343811035,0.668149173259735107,1.063114643096923828,-0.879453599452972412,1.941186070442199707,-0.820625066757202148,-0.621053814888000488,0.047090996056795120,0.469092249870300293,1.406534075736999512,-0.406496256589889526,-0.617111146450042725,0.738188385963439941,-0.461025923490524292,-0.813621103763580322,0.687230288982391357,0.287819951772689819,-0.770647466182708740,1.579452157020568848,0.195234596729278564,0.994276404380798340,1.356853008270263672,0.385503947734832764,-2.803891897201538086,1.326157212257385254,3.559264659881591797,1.247382760047912598,5.247323513031005859,15.288185119628906250,-0.684999644756317139,0.661164700984954834,1.178819894790649414,1.144482851028442383,-3.716562509536743164,1.004373311996459961,0.753013074398040771,1.339779019355773926,0.651396751403808594,-0.300515025854110718,-0.024927109479904175,1.429304003715515137,-0.457045644521713257,2.006670475006103516,0.603631734848022461,1.714237928390502930,2.338172674179077148
-0.958492636680603027,0.593641877174377441,0.291225612163543701,1.900407314300537109,0.956015408039093018,2.935254573822021484,-1.054456949234008789,-2.553154945373535156,-0.676647782325744629,0.721968889236450195,0.865580618381500244,1.151171326637268066,-0.445073515176773071,-0.347740650177001953,0.927793562412261963,-0.322612732648849487,1.538452744483947754,0.064544446766376495,1.293961286544799805,-1.070104956626892090,-0.565474629402160645,-1.181856274604797363,1.100857973098754883,0.967753112316131592,1.489602804183959961,0.867029011249542236,1.323307514190673828,0.496358633041381836,0.363721966743469238,1.460979104042053223,0.757197022438049316,1.151365280151367188,1.553232312202453613,1.137140512466430664,-0.369639337062835693,0.641638934612274170,0.497457981109619141,-0.370061308145523071,1.178157806396484375,-0.355928242206573486,2.096550226211547852,-0.661124169826507568,2.570223093032836914,0.197941094636917114,0.752028584480285645,-0.952968180179595947,-0.978925466537475586,1.703332781791687012,0.953587651252746582,1.364338874816894531,1.591751813888549805,2.130250930786132812,0.625706672668457031,0.994893372058868408,0.857501983642578125,-0.851763606071472168,-0.685535013675689697,0.332742691040039062,1.029227495193481445,2.834830522537231445,0.496280670166015625,-0.700989484786987305,-1.379020690917968750,0.336882829666137695,-1.357396364212036133,-0.562917530536651611,2.048641920089721680,1.064860343933105469,-0.540764987468719482,1.106835722923278809,0.732174277305603027,1.305935382843017578,0.327640056610107422,0.996554076671600342,1.395386219024658203,1.996785640716552734,1.557905077934265137,0.704765677452087402,1.175109624862670898,0.092290610074996948,0.406369179487228394,1.409502267837524414,-0.771042704582214355,0.988696336746215820,0.660247325897216797,-0.191143959760665894,1.033195495605468750,0.902543962001800537,0.740693628787994385,0.125621676445007324,1.369530677795410156,16.920846939086914062,0.712480783462524414,1.189340233802795410,0.882068693637847900,0.739407777786254883,0.571036517620086670,1.217676281929016113,1.295401096343994141,0.314601063728332520,-2.049812316894531250,-0.654833257198333740,-0.547085702419281006,1.260341644287109375,-0.694430410861968994,-0.471811026334762573,-0.954216539859771729,2.167344570159912109,0.765278995037078857,0.620851397514343262,2.003682613372802734,1.446230769157409668,1.523278474807739258,0.978639483451843262,0.704304337501525879,1.935677051544189453,0.757650852203369141,-0.559186100959777832,-0.598249435424804688,0.318210899829864502,1.038624286651611328,0.747342586517333984,2.009718656539916992,0.745148956775665283,-0.216274276375770569,-0.487431406974792480,0.241092190146446228,-2.276618957519531250,-0.252625763416290283,-0.824828624725341797,-0.918559551239013672,1.372526288032531738,1.120283603668212891,-0.347678959369659424,1.837065696716308594,0.034783218055963516,-1.320297479629516602,-0.409193813800811768,1.742111921310424805,1.018764972686767578,1.921535253524780273,-0.815328240394592285,1.007200002670288086,-0.071518115699291229,1.179261326789855957,-0.992927312850952148,-1.549489617347717285,-0.301362574100494385,1.547463774681091309,0.898796498775482178,-1.068029999732971191,1.609198331832885742,0.627177894115447998,1.086669564247131348,0.858707547187805176,1.728450417518615723,-1.147291779518127441,-0.232773229479789734,4.786517620086669922,-0.859707057476043701,0.712460398674011230,1.904195070266723633,6.644259929656982422,0.400099754333496094,0.955968260765075684,-1.752143621444702148,-0.232466384768486023,3.438979864120483398,-0.919840216636657715,1.014690041542053223,-1.319897174835205078,-1.787073731422424316,0.206511586904525757,1.279032230377197266,0.641206622123718262,1.664219021797180176,0.459417730569839478,0.684672653675079346,-1.000312924385070801,-0.639548361301422119,1.312041401863098145,1.377655625343322754,-0.713170289993286133,-0.485516905784606934,0.345528364181518555,0.839526116847991943,0.565291047096252441,-1.839875102043151855,-0.631853699684143066,1.487308740615844727,1.725737929344177246,0.647161424160003662,0.926440000534057617,0.555060923099517822,16.307359695434570312,-0.611637115478515625,-2.197333812713623047,1.155644893646240234,-0.129445552825927734,1.880671858787536621,-0.357070446014404297,-1.199686765670776367,1.990155577659606934,1.644660472869873047,-0.744019150733947754,1.495380282402038574,10.742179870605468750,-1.096832752227783203,-0.736599683761596680,0.366643309593200684,0.935779213905334473,0.696367204189300537,1.209263563156127930,-1.029960751533508301,1.758558154106140137,-0.703426897525787354,-0.675208866596221924,-0.047800071537494659,0.587156116962432861,1.110759139060974121,-0.239872485399246216,-0.652409851551055908,0.886905610561370850,-0.530456066131591797,-0.861657083034515381,0.588211357593536377,0.293963491916656494,-0.762289106845855713,1.607286095619201660,0.156614720821380615,1.107225179672241211,1.376234173774719238,0.332926750183105469,-2.937559127807617188,1.207541823387145996,3.371020555496215820,1.139628648757934570,5.184138774871826172,14.994551658630371094,-0.768103659152984619,0.604532420635223389,1.343296170234680176,1.109468579292297363,-3.817004919052124023,1.103361487388610840,1.122732877731323242,1.544578075408935547,0.652104020118713379,-0.095218479633331299,-0.050993319600820541,1.425332903861999512,-0.388372838497161865,1.859715580940246582,0.399871200323104858,1.580653190612792969,2.188728332519531250
0.806991636753082275,-0.901915669441223145,0.598253130912780762,-0.768845319747924805,-0.851316034793853760,-0.391659855842590332,4.107149600982666016,3.813235282897949219,0.227288141846656799,-0.033578947186470032,0.049873214215040207,-0.477543294429779053,2.094391107559204102,1.000738024711608887,0.062239442020654678,0.714393675327301025,-0.889841854572296143,0.952268958091735840,-0.475233912467956543,2.294141530990600586,0.540547788143157959,0.150902986526489258,-0.645533800125122070,-2.033298730850219727,-0.764697015285491943,-0.501494586467742920,-1.026944398880004883,-1.122396588325500488,-0.913443267345428467,-0.873396754264831543,-0.665721416473388672,-1.057569622993469238,-1.732645153999328613,-0.333824813365936279,1.500124335289001465,-0.688261389732360840,0.012383175082504749,0.465395539999008179,-0.900977790355682373,0.122604779899120331,-0.622974216938018799,1.604951858520507812,-0.085300520062446594,-0.471103727817535400,-0.853445410728454590,0.807768702507019043,1.704903006553649902,-1.165505290031433105,-0.117071732878684998,-1.180424809455871582,-2.111361265182495117,-0.422413647174835205,-1.376771688461303711,-1.165697455406188965,-0.461105406284332275,0.776796221733093262,0.695540308952331543,-0.974545180797576904,-1.257775664329528809,-1.200356125831604004,0.384849160909652710,0.550974190235137939,2.124918222427368164,1.991046547889709473,0.959876418113708496,0.205312371253967285,-3.101971387863159180,-0.452043205499649048,0.409646362066268921,-0.677559256553649902,-0.727144420146942139,-0.223653182387351990,-0.929223358631134033,-0.903096795082092285,-1.212375640869140625,-1.671207427978515625,-0.577680528163909912,-0.597898006439208984,-1.348023176193237305,-1.371464371681213379,-1.167970538139343262,-1.426384449005126953,0.853422939777374268,-2.841918706893920898,-0.231632754206657410,-0.276629358530044556,-2.394012928009033203,0.553909778594970703,-0.436037003993988037,-1.247407793998718262,-0.466870635747909546,-5.844418525695800781,-0.793760001659393311,-0.239170834422111511,-0.763877630233764648,-0.662137567996978760,-1.082794547080993652,-0.801862001419067383,-1.270574927330017090,-1.256176948547363281,2.989020347595214844,1.369720458984375000,0.233353346586227417,-0.792358756065368652,-0.130496874451637268,2.801829338073730469,1.219888806343078613,-0.582682549953460693,-1.734504103660583496,-0.599377989768981934,-1.380730986595153809,-0.630374193191528320,-1.439436912536621094,-0.772877037525177002,0.144332557916641235,0.582273781299591064,-0.767764091491699219,0.860324025154113770,-0.318247824907302856,-1.020430684089660645,-0.640886902809143066,-0.448802530765533447,-1.130334258079528809,-0.552609920501708984,0.242819264531135559,0.522816777229309082,1.099867224693298340,4.456608772277832031,1.729282379150390625,1.319590806961059570,0.676688671112060547,-0.841603815555572510,-1.125102281570434570,0.209172174334526062,-0.690485477447509766,0.638465940952301025,1.058118224143981934,0.774960458278656006,-0.624953508377075195,-0.978874206542968750,-0.713624060153961182,0.873038887977600098,-0.535177171230316162,5.060187339782714844,-1.166240215301513672,0.352966517210006714,1.896701931953430176,0.998737096786499023,-1.234273910522460938,-1.440275311470031738,1.413661360740661621,-0.637721538543701172,-0.887111723423004150,-0.783525347709655762,-0.738059639930725098,-0.897666037082672119,0.867257773876190186,0.188218459486961365,-6.227332115173339844,0.643789649009704590,0.220154687762260437,-1.382450580596923828,2.054137468338012695,-0.528505682945251465,-0.737833976745605469,0.918585538864135742,0.880784332752227783,-4.333950042724609375,1.210479617118835449,-0.239467695355415344,0.894021511077880859,1.429493069648742676,-1.472488403320312500,-0.634740948677062988,-1.031792402267456055,-0.266663402318954468,-1.361029386520385742,-0.717997908592224121,2.227365970611572266,0.896462440490722656,-1.220340609550476074,-0.653061926364898682,2.608269691467285156,-0.816306829452514648,-0.826927185058593750,-0.485253989696502686,-0.570694208145141602,2.289026260375976562,0.019909724593162537,-0.271019518375396729,1.371182441711425781,-0.555698573589324951,-0.166504755616188049,-0.235904246568679810,-9.876661300659179688,0.411551117897033691,2.580034494400024414,-0.777601957321166992,-0.148875132203102112,-0.770574569702148438,1.373769164085388184,0.899162232875823975,0.960298955440521240,-1.260342836380004883,0.065920561552047729,-1.820566773414611816,-10.108192443847656250,4.195963382720947266,0.367674112319946289,-0.701519608497619629,-0.296224415302276611,-0.814361035823822021,-0.889427244663238525,0.852242767810821533,-2.351916074752807617,1.388542175292968750,0.877696514129638672,0.459591776132583618,-0.601699292659759521,-0.949224948883056641,1.005596518516540527,-0.143237650394439697,-0.778331518173217773,-0.414849609136581421,1.549744248390197754,-1.007889747619628906,-1.715007662773132324,0.952898442745208740,-0.542566657066345215,-1.040520429611206055,-1.007048010826110840,0.088107705116271973,-1.191136837005615234,1.801771998405456543,-0.479799360036849976,-2.289553165435791016,-0.820757210254669189,3.846425533294677734,-5.979691505432128906,3.732245445251464844,-0.779323816299438477,-0.852070033550262451,-1.059695124626159668,6.725281715393066406,-1.133399486541748047,-1.445118546485900879,-0.659814536571502686,0.808357179164886475,0.257245719432830811,-0.847203075885772705,-0.540801465511322021,1.235580563545227051,-0.431425452232360840,0.500631570816040039,-2.318644762039184570,-0.164924427866935730
-1.295427918434143066,0.724684417247772217,0.005637258291244507,1.644754409790039062,0.837241888046264648,3.106904268264770508,-1.024529576301574707,-2.309449672698974609,-0.613287329673767090,0.899224758148193359,0.608868777751922607,1.315533161163330078,-0.663805544376373291,-0.395603269338607788,1.017757296562194824,-0.501789510250091553,1.434841871261596680,0.018811831250786781,1.246178388595581055,-1.436027884483337402,-0.579659700393676758,-1.291574954986572266,1.227516651153564453,0.720575690269470215,1.161526083946228027,0.866482079029083252,1.271541357040405273,0.361826390027999878,0.118657104671001434,1.120042562484741211,1.034666061401367188,1.213048219680786133,1.668790459632873535,1.155968785285949707,-0.725891947746276855,0.539990246295928955,0.235412016510963440,-0.554758727550506592,1.173305511474609375,-0.299037486314773560,1.966024398803710938,-0.955347657203674316,2.316480159759521484,0.150953918695449829,0.756496548652648926,-0.744606614112854004,-0.993641495704650879,1.555485486984252930,0.710206985473632812,0.946721434593200684,1.214795470237731934,1.801401853561401367,0.961891293525695801,1.008614897727966309,0.785846352577209473,-0.810452938079833984,-0.720001339912414551,0.449191659688949585,1.333196520805358887,2.804375648498535156,0.393246650695800781,-0.806692004203796387,-1.505635023117065430,0.277745693922042847,-1.604676246643066406,-0.755534827709197998,1.950844049453735352,0.973142981529235840,-0.596207201480865479,1.006583929061889648,0.372515887022018433,1.364265203475952148,0.453848004341125488,1.198471546173095703,1.141752243041992188,1.751658439636230469,1.466419219970703125,0.596698939800262451,1.158442139625549316,0.071905650198459625,0.456023454666137695,1.509244680404663086,-1.142701506614685059,0.849622249603271484,0.675312399864196777,0.005346691235899925,1.221166610717773438,0.433077603578567505,0.592881023883819580,0.344568520784378052,1.421975612640380859,17.047302246093750000,0.732005476951599121,1.178670048713684082,0.525215864181518555,0.630224406719207764,0.403838545083999634,0.930941462516784668,1.017144918441772461,0.385514289140701294,-2.003681898117065430,-0.746341347694396973,-0.544766902923583984,1.119117617607116699,-0.820531368255615234,-0.762514710426330566,-0.617400169372558594,1.953274726867675781,0.306669294834136963,0.314255654811859131,1.765844345092773438,1.139109015464782715,1.455895543098449707,1.195603847503662109,0.456390380859375000,1.706029295921325684,0.746945798397064209,-0.542448282241821289,-0.434742063283920288,0.579412341117858887,1.317787647247314453,0.324057191610336304,1.978179931640625000,0.719194412231445312,-0.173869743943214417,-0.501625537872314453,0.027510348707437515,-2.193832874298095703,-0.284064501523971558,-1.161054491996765137,-0.913091659545898438,1.230872511863708496,1.238086581230163574,-0.280304163694381714,1.848878026008605957,-0.253245025873184204,-1.417590498924255371,-0.403010636568069458,1.586335778236389160,0.849022626876831055,1.770833611488342285,-0.954645931720733643,1.346087932586669922,-0.544848918914794922,1.119190931320190430,-1.154786586761474609,-1.720882296562194824,-0.166598021984100342,1.144958734512329102,0.911489903926849365,-1.258753180503845215,1.624128222465515137,0.910571098327636719,0.972728729248046875,0.639135003089904785,1.421606183052062988,-1.382939934730529785,-0.360102921724319458,4.747427940368652344,-1.010719656944274902,0.826145648956298828,1.719549298286437988,6.807848930358886719,0.540613830089569092,0.989489436149597168,-1.512475490570068359,-0.383115559816360474,3.321576356887817383,-1.503554224967956543,1.174542069435119629,-1.573729991912841797,-1.623953461647033691,0.236695557832717896,0.865864396095275879,0.765869915485382080,1.305773258209228516,0.633202731609344482,0.798936784267425537,-0.924096405506134033,-1.025810599327087402,1.179876327514648438,1.126870512962341309,-0.868872225284576416,-0.530308067798614502,0.266270726919174194,0.744669556617736816,0.421594113111495972,-2.250335931777954102,-0.768808603286743164,1.342208385467529297,1.869666576385498047,0.385443329811096191,0.790352284908294678,0.708757340908050537,16.092006683349609375,-0.445490300655364990,-2.218693017959594727,0.860810875892639160,-0.404147267341613770,1.819000720977783203,-0.318631291389465332,-1.310742735862731934,1.848770737648010254,1.358581781387329102,-0.742935478687286377,1.302806496620178223,10.427779197692871094,-1.313767433166503906,-0.742654204368591309,0.212656930088996887,0.775027215480804443,0.853809297084808350,1.266200661659240723,-0.906857192516326904,1.732682466506958008,-1.104513525962829590,-0.462118566036224365,0.114395834505558014,0.954592168331146240,1.164764165878295898,-0.440448492765426636,-0.880276262760162354,0.996734201908111572,-0.308008521795272827,-0.949659287929534912,0.636997282505035400,-0.001134044141508639,-0.781979918479919434,1.370273590087890625,0.103312090039253235,0.806726694107055664,1.008851528167724609,0.168153673410415649,-3.302191734313964844,1.260581851005554199,3.523311138153076172,1.374127388000488281,4.949010848999023438,15.123737335205078125,-0.857086360454559326,0.466427564620971680,0.857328653335571289,1.268887042999267578,-3.822829484939575195,0.984207212924957275,0.957474529743194580,1.149195194244384766,0.517098784446716309,-0.440366089344024658,0.066960506141185760,1.254968047142028809,-0.486395090818405151,1.755322337150573730,0.422549068927764893,1.568994641304016113,1.845189929008483887
1.679921627044677734,-0.440555483102798462,0.079504169523715973,-0.981793642044067383,-0.792439043521881104,-2.039031744003295898,1.771057963371276855,2.692063570022583008,1.033504843711853027,-0.624043285846710205,-0.861459851264953613,-0.332770496606826782,1.049448490142822266,0.927296698093414307,-0.803901314735412598,0.859367609024047852,-0.308301776647567749,0.528991937637329102,-0.405212819576263428,1.605915546417236328,1.204900622367858887,1.489347696304321289,-0.568721055984497070,-1.001119852066040039,-0.938690543174743652,-0.529474377632141113,-1.139270424842834473,-0.525535047054290771,-0.295755505561828613,-1.133155822753906250,-0.577364504337310791,-0.398025006055831909,-0.674932420253753662,-0.499142706394195557,0.894448757171630859,-0.821804821491241455,-0.189823716878890991,1.047853827476501465,-0.373675376176834106,0.893442273139953613,-2.020407676696777344,2.006404876708984375,-0.212139755487442017,0.663130879402160645,-0.152215406298637390,1.974562764167785645,1.812996029853820801,-1.158443689346313477,1.348902583122253418,-1.103354692459106445,-0.702982842922210693,-1.344307541847229004,-0.724019050598144531,-0.675447106361389160,-1.231050968170166016,1.186839699745178223,0.696825563907623291,-0.432719886302947998,-0.449420034885406494,-2.506052255630493164,0.019341118633747101,0.851400315761566162,1.813735961914062500,1.372358918190002441,2.171549081802368164,1.351102352142333984,-0.809700369834899902,-1.006466507911682129,0.887806951999664307,-0.745507597923278809,-0.521875858306884766,-1.024894952774047852,-0.225945919752120972,-0.822703480720520020,-0.689899027347564697,-1.462960362434387207,-0.524621605873107910,-0.427785217761993408,-1.163286924362182617,0.089176408946514130,-0.641613423824310303,-0.323415130376815796,1.338016510009765625,-0.741403937339782715,-0.879764199256896973,0.439092606306076050,-0.651134073734283447,-0.183809876441955566,-0.604247331619262695,-0.502333641052246094,-1.087804913520812988,-10.769247055053710938,-0.650566577911376953,-0.930605053901672363,-0.782869935035705566,-0.650575339794158936,-0.382902592420578003,-0.733016550540924072,-0.956263184547424316,-0.441549450159072876,2.874995470046997070,1.459879279136657715,0.727020859718322754,-0.779062390327453613,1.059909820556640625,1.905083179473876953,0.839014053344726562,-1.853602051734924316,-0.866109788417816162,-0.623127758502960205,-1.456595659255981445,-0.772566974163055420,-1.170231342315673828,-1.002107858657836914,0.131420016288757324,-1.350951552391052246,-0.720195710659027100,0.984098494052886963,1.093396782875061035,0.077155351638793945,-1.057111978530883789,-0.487304419279098511,-0.871746301651000977,-0.423345714807510376,0.732684969902038574,0.822771549224853516,0.133811071515083313,2.666920900344848633,0.604295790195465088,1.088823080062866211,0.939710795879364014,-0.656053364276885986,-0.703677892684936523,0.497852355241775513,-0.992081284523010254,0.488422900438308716,2.463760137557983398,0.888031184673309326,-0.885040521621704102,-0.996121168136596680,-0.989825963973999023,1.070663928985595703,-1.152430176734924316,0.700694918632507324,-1.046868324279785156,0.836387336254119873,2.056658506393432617,0.808430254459381104,-0.306261211633682251,-0.724705874919891357,2.492392778396606445,-0.384930491447448730,-0.980076193809509277,-0.238914445042610168,-0.652312457561492920,-0.620230853557586670,1.057283043861389160,0.608267605304718018,-4.761535167694091797,1.275520801544189453,-0.068852290511131287,-0.790967762470245361,-6.760515689849853516,-0.609792888164520264,-0.625958561897277832,2.179978370666503906,1.313837528228759766,-2.647341251373291016,1.602529048919677734,-0.432985186576843262,2.042311668395996094,2.365622282028198242,0.016877798363566399,-1.335779547691345215,-0.332581788301467896,-0.492221146821975708,-1.027746081352233887,-0.477002769708633423,1.503919482231140137,0.911422669887542725,-1.197486400604248047,-0.861508131027221680,2.229729413986206055,0.781078577041625977,-0.528414905071258545,-0.867315948009490967,-0.889284491539001465,2.339875936508178711,0.768516957759857178,-0.471860051155090332,-1.113140940666198730,0.066239304840564728,-1.418298482894897461,-1.014963507652282715,-13.493263244628906250,0.597803711891174316,2.627171039581298828,-0.823186755180358887,0.310703396797180176,-1.247104048728942871,1.034068346023559570,1.646653771400451660,-0.839386701583862305,-0.836189508438110352,1.164348006248474121,-0.880135476589202881,-8.437257766723632812,2.194918632507324219,1.037380695343017578,-0.268791913986206055,-1.031132459640502930,-0.988004922866821289,-0.478963762521743774,1.977097868919372559,-1.470249652862548828,1.405610322952270508,0.944012224674224854,0.226621270179748535,-0.265365421772003174,-1.017460823059082031,0.548378407955169678,0.682034790515899658,-0.787009239196777344,0.914419054985046387,1.190348386764526367,-0.426645427942276001,-0.441546708345413208,0.948507070541381836,-0.737867355346679688,-0.155635118484497070,-0.689724087715148926,-0.249805375933647156,-0.468224495649337769,3.181688785552978516,-0.985209643840789795,-0.938037097454071045,-0.723050653934478760,-3.011104822158813477,-11.489480972290039062,1.355374813079833984,-0.631445527076721191,-0.749732077121734619,-0.418741583824157715,4.497955322265625000,-0.267948567867279053,-0.900226652622222900,-1.319485783576965332,-0.147888928651809692,0.605031847953796387,0.054821431636810303,-0.899198770523071289,1.585406661033630371,-0.825861215591430664,0.215728864073753357,-1.821801900863647461,-0.555593848228454590
